-0.39985037 -1.197521 -0.1845132 -0.9712681 0.27472484 -0.42834005 -0.89258283 0.0074855955 -0.32697988 0.13316882 -0.47387174 -0.94034576 0.12011594 -0.5536953 -0.8225782 0.5142626 -0.9605881 0.5325021 -0.22779353 -0.12640534 0.23720045 -0.060568105 -0.07704935 0.27155298 -0.2671349 -0.49127817 -0.4042003 -0.9008693 -0.4993629 0.54597795 -0.3951913 0.28006226 0.63010406 -0.09317893 -0.86059386 0.28630525 -0.19913268 -0.03865309 -0.46901628 -0.34231454 -0.72140753 -0.808468 -1.1355554 -0.18085296 0.25649637 0.03473647 -0.29665428 0.39150205 -1.2787795 -0.8402395 0.28499267 -0.6634805 -1.1082759 -0.58595556 -0.37340498 -0.32674494 -1.2910788 0.03329875 -1.021642 -0.2684963 -0.7977122 -1.1355484 0.61257386 0.025503062 0.9613294 -0.32225376 0.51953954 -0.3302219 -0.09081445 0.22939646 1.0295367 0.72471946 0.5614227 1.1640491 0.2216194 0.08796069 -0.2447313 0.97898775 0.024878617 0.24872138 0.3268755 -0.35468438 -0.71489316 0.64332885 -0.6678625 -0.9419629 -0.13151395 -0.50840056 -0.6516131 0.21169892 0.5122724 -0.92156345 0.041715164 -0.1285872 -0.49818796 -0.24786785 -0.9255786 -0.047646794 -0.90678954 -0.7914586 0.07422047 -1.1761187 -1.1154034 -0.6431471 -0.36791894 0.22235508 -1.1731126 -0.6085006 0.12079583 -0.35140133 -0.84850526 0.15147066 0.11717011 0.12445177 0.8816669 0.3394169 0.8032739 0.46671304 0.9837649 0.8050582 0.03450646 0.72686505 0.73514897 -0.5723081 -0.28516585 0.6254577 -0.018094068 -0.044472124 1.0156995 0.10216449 0.26448515 -0.30103156 -0.27437773 -0.11652353 0.50650746 0.44314322 -0.06300959 0.7762241 -0.73778063 -0.24654073 -1.1402878 -0.37690037 -0.47937068 -0.36948285 -0.39662275 -0.18616995 0.419155 -0.67088646 -0.27426717 -0.91334504 -0.07476084 -0.72738504 -0.059364144 -1.3386592 -0.56904787 0.42642665 -0.4332034 -0.86916625 -1.1063807 -1.0173216 0.16234855 -0.6163753 0.8107683 0.21600741 -0.21631104 -0.5795431 -0.71491 -0.28292447 0.9087298 0.7537517 -0.20498842 0.5073534 1.1062317 0.8637899 -0.075307764 -0.32837704 -0.40755773 -0.41610837 0.37355006 0.5853911 -0.9139464 0.5010784 -0.7900419 0.22629815 -0.28831026 0.36990935 -0.022862071 -0.117580034 -0.38500518 0.07306628 -0.31231013 0.1223552 0.030684432 -0.3346478 -1.2738618 -0.74170077 -0.61891174 -1.2662655 -1.0996728 -1.0313467 -0.77519655 -1.1353713 -0.8214674 -0.9930711 0.33483812 -0.3369904 0.25233957 -1.1250787 0.7149709 0.08824577 0.60845065 -0.69457 -0.036271602 -0.49817476 -0.75236523 -0.256561 0.6339564 -0.478476 -0.66581976 -0.015045949 -0.3940673 -0.27916417 0.44254917 0.80785537 0.5345641 -0.33992028 0.5581644 0.8469011 0.3717237 0.41039005 -0.8894674 0.21166109 -0.53727996 -0.48650768 -0.50365305 -0.212948 -0.43282804 -0.14418246 0.66732943 -0.7654644 -0.3236856 -0.6360521 0.36558622 -0.29986355 0.56598634 0.46510306 -0.5387217 -0.54552436 -0.7237213 0.0875463 -0.50785935 -0.91505456 -1.0946089 -0.32610533 -1.070794 0.4007893 0.28052828 0.38981828 0.7930263 0.1107446 -0.61332065 0.046593025 0.6025198 -0.31083784 -0.6703211 0.609405 1.1176207 0.7291064 1.0445485 -0.4854222 0.109884046 0.8471673 -0.49110267 -0.13941865 -0.008703826 -0.481353 0.22794436 -0.47440845 0.4066111 0.81278455 -0.4603232 0.38197854 -0.48796824 -0.4753532 0.16313514 -0.7803426 -0.7562038 0.13939424 0.33276355 -1.0066886 0.12293872 0.03147011 -0.9993081 0.6670265 0.018313957 0.50829446 -0.97818303 0.36049825 0.51154274 -0.90205204 0.05607861 -0.4493126 -0.40105987 -0.27664915 0.61786836 -0.58925307 0.61476475 -0.9394045 -0.27084804 -0.44068715 -0.6893069 1.0005201 -0.39279705 0.93997425 -0.034181267 -0.005993311 0.27152628 0.283822 -0.09740027 -0.4173938 0.6091272 -0.7009176 -0.24699897 -0.57435375 -0.4428479 -0.4936295 0.18103214 -0.44217774 0.829276 0.20001782 0.83058786 -0.795519 0.7068958 0.5833567 0.6330444 -0.09892422 -0.3277751 0.6298978 -0.23247 -0.76064676 0.56584185 0.15314561 -0.8390124 0.6639272 -0.1151583 -0.3927792 -1.0271372 -0.19115739 -0.6319104 -1.257135 -1.0355023 -0.93873113 -1.1608167 0.23066172 0.29882 -0.571473 -0.023014601 -0.4678968 -0.60831755 0.9825934 0.8400368 -0.7079941 -0.74333704 0.7698275 -0.3511842 0.021241093 0.31130314 0.33414942 0.60055095 -0.7478403 -0.48890793 0.48767644 -0.6487751 0.8241 -0.4683843 -0.17581403 0.6534929 -0.7792375 -0.8865059 0.53452474 -0.62293655 -0.9561515 -0.79740345 -0.13077745 0.556568 0.33397886 -0.10755132 -0.50435925 0.5427816 0.43853477 0.7911624 -0.8546099 -0.72719306 -0.9725063 0.15740025 0.021090742 0.113522165 0.23058888 -0.50505906 -0.53558916 -0.8958683 -0.2582005 -0.64033026 -0.86172575 0.7196873 1.0622637 0.016687483 0.09942653 0.3859121 0.6861725 0.67931163 -0.2452722 0.6962307 0.16555063 0.18728499 0.5822036 -0.8889043 0.04451986 -0.37733194 0.48394358 -0.6042562 -0.550526 -0.23506027 -0.7795456 0.14552571 0.47275332 -0.021543099 -0.7663738 -0.95787644 0.6281421 -0.43494055 -0.09587702 -0.33827555 -0.63519114 0.5288866 -0.34989253 -0.01211082 0.0036775582 -0.82392937 0.7464698 -0.12837505 0.30497926 0.009643063 0.21823168 -0.062180296 -0.10965595 -0.15291174 0.39739117 -0.022487475 0.42351082 0.54741585 0.5732237 -0.85876507 0.35171407 -0.85512716 0.3523975 -0.3099872 -0.024512606 0.74651575 0.2813133 0.07059473 -0.31135106 0.7726592 -0.2658187 -0.14653613 0.3961789 -0.07778547 -0.6141518 -0.56773245 -0.73822963 -0.8346916 -0.079344876 -0.4949464 0.42373976 0.17631719 -0.36205176 0.19551393 -0.80809134 -0.31343427 -0.98126936 -0.89818865 -0.69159317 -0.035372593 -0.3114953 0.5039825 0.7533614 0.5071542 0.33305266 -0.1728228 0.5758163 -0.47896153 -0.043037444 -0.84251505 0.47712788 -0.26475438 0.63936573 -1.1332885 0.23986606 -1.0584135 -0.9519907 0.38211903 -0.84538925 -0.5790739 0.082271874 -0.6917292 -0.7178603 -0.4435461 0.08122273 0.63891166 0.9035833 0.1730215 0.34975773 0.12012443 -0.789183 0.3136794 -0.7792216 -0.35683933 0.31719887 -0.62102175 -0.63954157 0.83401805 0.48501846 0.5988333 0.73230237 -0.3746564 -0.71181196 -0.7500265 1.0368571 -0.3798942 -0.004215652 -0.6830014 0.022198532 -0.5795104 -0.7115139 -0.47192574 0.0076684384 0.037723538 0.779777 0.6492787 0.7870681 -0.4061568 -0.5585001 -0.42507946 -0.8042865 -0.63046134 0.83438027 -0.75449574 -0.37385026 0.32319278 0.24586484 -1.1224939 -0.97308713 0.74234444 0.4278454 0.57630277 0.18135834 0.1233066 0.68868625 0.6208187 -0.122582436 -0.5882883 -0.06652288 -0.50302964 0.35571584 -0.5755485 0.13579388 0.8235452 -0.6889093 -0.12823774 -0.7615759 0.54176885 0.20998085 0.7684899 0.2991798 0.6928582 -0.6646783 0.19967619 -0.33315298 0.7592361 0.95849246 -0.21938597 -0.42703903 -0.97352034 -0.19249319 0.14664824 -0.7113293 0.042540103 -0.7689227 -0.75474226 0.19334136 -0.12202915 -0.49743792 -0.44962105 -0.3682163 -0.79674864 -0.52542716 -0.33113632 -0.82028466 0.3581153 0.2749341 -0.8456073 -0.9012787 -0.3556972 0.26108322 0.29689035 0.01991081 0.27283743 -0.20114367 -0.8767411 -0.47896412 0.47976482 0.33975536 0.12029121 -0.1103278 0.0040707355 -0.32750857 0.5312421 -0.99439806 -1.018659 -0.7356097 0.44870964 -0.03628298 0.25682595 0.7425179 0.13113363 0.7376455 -0.04063735 -0.43291086 -0.28165063 -0.285864 -0.41878557 -0.037939426 0.48520768 -0.2742078 -0.06825948 0.6982486 -0.94975996 0.6291902 0.55130374 0.11127358 -0.32763788 0.68373144 -0.31843808 0.36758643 -0.7050025 0.5287464 0.43102038 0.69146925 -0.5425387 0.15622534 -0.884977 0.5334349 0.121342644 -0.64419013 0.77621424 0.019621562 0.5817033 -0.32555616 -0.23758805 0.12564687 0.2737263 0.038304888 0.50177 0.99729836 -0.3399558 0.19332868 -0.9712009 0.45332474 0.2794467 0.7115844 0.19608812 0.7318321 0.30787182 -0.83654886 0.0062111155 0.47925302 0.23815905 -0.21465982 0.9812097 0.54006517 0.14484432 -0.123735316 0.37731707 0.3322447 0.6635428 -0.65455914 0.10458657 0.1170608 0.0067540132 -0.80935216 0.20233813 -0.21887684 0.15479128 0.16832721 0.82999355 -0.50422215 0.59913206 -0.36196807 -0.12201438 -1.0325729 0.6275582 0.69269884 -0.8228217 0.7067994 -0.6953132 -0.035448693 -0.2830279 0.6811393 -0.10246691 0.47095782 0.13271382 0.65501267 -0.3179318 -0.0058661345 0.6690924 0.22372445 -0.47988278 0.54193825 -0.67442906 -0.8470426 0.6386606 -0.7223636 0.25939456 0.38860625 0.08040732 -0.34359857 0.14557856 0.26395315 -0.13675801 -0.5815295 0.26916087 -0.7180925 0.4063967 -0.30921063 -0.95098215 0.030506404 -0.780378 0.2592899 -0.73191434 -0.31184748 0.23679033 -0.006047623 -0.5586965 0.82229483 -0.71512973 0.18345217 -0.50526 -0.7079693 -0.31768164 -0.15495995 -0.007589623 -0.07712026 0.81997913 0.54933995 0.6033523 0.5315168 -0.32902798 0.16489927 -0.45976752 -0.72523886 -0.16934969 -0.24313426 0.7097548 -0.37519553 0.5299927 -0.791459 -0.5571052 -0.93408614 0.8036628 -0.113444395 0.88723904 -0.30480313 -0.07730105 0.25134066 -0.34783572 -0.067019455 -0.031866323 0.09186114 0.833132 0.59713894 -0.77568793 0.62332004 0.23660477 0.46494615 -0.3282898 -0.16086902 -0.36464775 -0.22538772 -0.10739657 -0.69961077 0.9746291 -0.87294126 -0.9213849 -0.081915975 0.53277236 0.0056683845 -0.4137946 0.2815301 -0.47625852 -0.9060027 0.4340217 -0.29384908 0.6026002 -0.11345699 -0.3024754 0.8912333 -0.27438644 -0.24501485 0.8787028 -0.103055604 -0.32590532 0.72013277 -0.2485734 0.24456464 0.526744 0.9164622 -0.7167388 0.76524454 0.60664654 0.67300993 0.41363463 0.27229396 -0.09638804 0.010107549 1.0778501 -0.44671324 0.040601175 -0.3892145 -0.1324797 0.47918373 0.07382902 0.6616152 0.65619653 -0.5128573 -0.2978242 0.6855868 -0.7542727 -0.07487688 -0.7065288 0.34615782 -0.10212849 0.57956845 0.66123235 -0.67881244 -0.2037022 1.0137508 -0.6785692 0.8403526 -0.4397828 0.3058743 -0.2137804 0.87012416 0.31732103 0.11733345 0.74477684 0.99172574 -0.67127335 -0.7269288 0.7681887 -0.2272046 -0.18759146 0.5699827 -0.8042242 0.47938567 -0.7339347 -0.35638055 0.7805484 -0.41436017 -0.09354654 -0.36737347 -0.731369 0.9426583 0.6943875 -0.7104005 1.0378156 -0.506702 0.45613983 0.56889737 0.43367353 -0.34979808 -0.76661277 0.45350114 0.7663399 -0.9588428 -0.47490388 0.4373943 0.7678367 -0.05624157 0.8913487 -0.41479594 -0.084424704 -0.87474746 0.9410355 0.85548663 0.7155338 0.117894106 0.6079343 -0.20287545 0.9207501 -0.4299513 0.48064497 0.25241107 1.0460345 -0.53041553 -0.43787038 0.55709165 -0.33259293 0.0027023074 0.040545102 0.15561417 0.732089 0.75025976 0.58223605 -0.06722819 -0.21922441 0.26366577 -0.8972124 -0.021955863 -0.5745191 -0.044614237 0.052535027 0.49778602 -0.3660317 -0.43952057 0.74917215 0.2427101 -0.3240985 -0.113000184 0.285768 -0.47374117 0.70128137 0.74715364 0.37968397 0.3361747 0.93636477 0.3540751 0.2892808 0.31089085 0.9853317 -0.5162848 -0.38800573 0.43909723 -0.864185 0.57593346 0.48549804 0.057765607 0.29581863 0.10095436 0.8888019 -0.9091447 0.04056165 0.037915915 0.055399153 -0.20700642 0.0037506744 -0.45332518 0.49804133 -0.65660924 -0.20595424 0.79360855 0.37688234 -0.54151005 -0.3772504 0.38975036 0.59347385 0.028695174 0.69990945 0.617589 0.5058351 -0.16974023 0.38185287 0.23859419 0.8111704 0.44924203 0.028015025 -0.26829386 0.20901251 -0.3456155 0.9528556 0.35714722 0.9721487 0.15840603 -0.5096206 0.784786 -0.42826685 0.34878126 -0.10913353 0.39591047 -0.58722985 0.40014008 -0.13711551 0.21021336 0.41486132 -0.83323836 0.45089778 0.93617034 0.27562556 -0.09092396 0.63028264 0.023954017 -0.63970447 -0.5676629 0.08450274 0.6715538 -0.28446287 -0.376307 -0.36829406 -0.25267792 0.7406271 0.1994958 0.81409717 -0.87250364 0.28389758 -0.023330795 -0.45382106 0.65410024 0.40850624 -0.03942698 0.28190702 0.930095 0.8796924 -0.48790947 0.37631682 -0.7245252 -0.07798571 0.22985455 -0.033106603 -0.061958537 0.9512664 0.53806174 -0.63482666 0.55040747 -0.45814386 -0.45646414 -0.01824008 -0.3823654 -0.27086672 0.15996428 0.12116766 -0.5730457 -0.5902287 0.45308325 0.41351604 0.14434485 0.76124614 0.18325055 0.91532946 -0.63588476 0.931718 0.10093101 -0.4433761 1.0040319 -0.41103175 0.51294506 -0.4759424 0.18868312 -0.61435336 0.64304364 -0.19269793 0.17290515 0.03517831 -0.5962397 0.5766989 0.83758223 0.27468267 -0.972975 -0.9028734 -0.55522376 0.5972011 -0.49008793 -0.3375051 -0.20501193 0.83422923 0.946801 -0.006682434 -0.28660706 0.4447033 0.7267932 -0.26656494 -0.55267787 0.55600023 0.6610271 0.39696264 0.011600701 0.6160059 0.2775808 0.5882646 0.51237243 -0.26594582 0.6253704 -0.02133872 0.23250122 0.32380652 0.36221114 1.1172043 -0.11565694 0.94949657 0.31974405 0.43863663 -0.1513316 -0.22986467 0.80351484 1.1996539 0.03183538 0.74903464 -0.042081453 0.85829276 -0.7596922 -0.34678185 0.68542 0.57283354 -0.68553793 0.08717137 -0.0070954924 0.19388029 -0.22336479 -0.15419982 -0.32121056 -0.6459707 -0.18521848 -0.4675094 0.4391674 -0.29209214 0.3868568 0.2982638 -0.19801348 -0.43310106 0.5678091 -0.33875206 0.15616073 0.75023884 -0.121511504 -0.63343346 0.84454435 1.0269661 0.6533006 0.99093026 0.8245162 0.9490205 -0.41390085 0.2539225 0.2930392 -0.6227426 0.08000318 -0.45786738 1.020512 0.26368415 1.1681795 0.22311945 -0.54469717 0.15280311 0.4714381 0.7597187 0.40950644 0.12704057 0.54827666 -0.7878699 0.62675864 -0.24818097 0.66058046 -0.35809037 0.3666187 -0.31560415 0.37390447 0.2812208 -0.070040494 0.5406423 -0.11497166 0.09411118 -0.20664106 -0.91937345 -0.27950823 0.39386034 -0.42414498 -0.12596232 -0.7608833 -0.2039017 0.48060864 -0.22781362 0.42260388 0.33777967 -0.52263165 0.5468547 0.06195127 0.33787003 0.52361244 0.1151642 -0.20549108 -0.48680246 -0.762587 0.57795954 0.7781938 0.64457625 -0.22178513 0.27739546 -0.34198642 -0.54938006 -0.62886596 -0.016971773 0.21449056 0.34950584 0.7171665 0.9589345 0.20280272 0.15017729 0.35286567 0.028866291 0.18747912 0.35230744 -0.027959555 -0.5909831 0.46535188 0.11597433 -0.34533644 0.12932639 -0.88841546 -0.9306041 0.077437736 -0.49165452 0.18142936 -1.0379992 -0.3182171 -0.18374485 0.49755636 0.23968002 0.76966345 -0.82357806 -0.46605983 -0.009195063 0.53371483 -0.2855433 -0.26615357 0.4774316 -0.7200726 0.9208576 0.37598407 -0.09828031 -0.4291162 0.18168946 0.6450959 -0.7776523 -0.72310686 -0.081550956 0.036328934 0.89409584 -0.14192149 0.7786972 0.6693653 -0.5497183 0.822626 0.65932584 0.6768955 1.0555279 -0.20594408 0.96436393 -0.599039 -0.39739662 -0.5521668 0.90200967 0.12584478 0.027703505 0.655998 -0.38987052 0.5827397 -0.23445545 -0.76124775 -0.7707905 -0.89332443 0.7410367 -0.020694662 -0.74445724 -0.41895452 -0.4093943 0.77440834 -0.95819134 0.45984778 -0.9043229 0.8589642 -0.9190038 -0.029628932 0.110407695 -0.31176043 0.33719084 -0.10304726 -0.61339897 0.1959847 0.5467657 -0.05567041 0.27406216 -0.38180012 -0.034525104 0.7160043 -0.24861756 0.34699756 0.48184353 -0.17792414 0.2830553 0.56132776 -0.3562627 0.47521225 0.33290744 -0.71342486 0.970881 -0.21806239 0.6751534 -0.06839834 0.11693959 0.56113493 -0.007585505 -0.6086454 0.5452358 -0.67695063 -0.5691554 0.18345807 0.27199963 -0.43489707 0.019655367 -0.1339705 0.65768844 -0.08704911 -0.1880925 -0.4689908 -0.5645659 0.017812274 -0.28492782 -0.6036138 0.76262814 0.31417665 0.14247158 -0.40393075 -0.29558167 0.49609926 -0.8528272 -0.40505445 -0.32351634 0.49194098 -0.5366172 0.42561275 0.5739068 -0.71974796 0.17538825 0.31017077 -0.34288985 0.2848324 -0.37041354 0.8349973 0.5327465 1.0533009 -0.337824 -0.57612336 0.0052493545 -0.13052659 0.64324254 -0.45603606 -0.38543975 0.027460609 -0.47100887 0.26020142 -0.8010699 0.08591662 0.5537185 -0.6247113 -0.80379087 -0.47331282 0.7480063 0.13485312 0.009887014 0.25794038 0.06377508 0.24554066 -0.85715055 -0.7159548 -0.3049577 -0.85750735 0.734367 -0.40298578 -0.16231251 -0.85140413 0.7000239 0.68315154 -0.9280798 0.2714562 -0.91573364 -0.40047178 -0.33257374 -0.15189222 -0.56942135 1.0117877 -0.042178348 1.062874 -0.616128 -0.7625184 0.5057557 0.6808028 1.0648707 -0.44768092 0.14719565 0.4731748 0.4277749 0.18464111 -0.3510916 -0.54541904 -0.30356365 0.7468005 0.58310646 0.42719117 -0.6063058 0.40127674 -0.45480216 -0.8176611 0.197801 -0.8649593 0.23588102 -1.1001755 0.42933866 -0.37692076 -0.09597332 -0.5297315 -0.27958107 -0.7091788 0.009418488 -0.47075203 -1.000235 -1.0929813 -0.9434814 -0.47014835 -0.33761138 0.64547646 -1.0689458 -0.731118 -0.037161004 -0.6517002 -0.14428397 -1.0851042 -0.3784227 0.6601543 0.721469 -0.46309793 0.5127693 0.39064184 0.19770315 0.2643949 0.7997456 0.5387106 -0.6766015 -0.35033435 0.22002922 -0.29451597 0.7865624 -0.047337145 -0.9407241 0.69015443 0.6281255 -0.33955187 -0.6869014 0.8399681 0.39183357 -0.2946924 -0.84064573 0.37870228 0.52432275 -0.75492215 0.32748872 0.47003973 0.019445345 -0.14930744 -0.42741862 -0.58242816 -0.7259537 0.74278194 -0.7069473 0.882803 -0.1604112 -0.58305836 -0.17099935 0.02369782 -1.0663251 -0.7403341 -0.21647835 -0.19549584 -0.6027879 0.37291786 -0.1447152 -1.2157818 0.3005694 -0.5768068 -1.0692486 0.8365393 0.88095814 0.06160033 0.15607423 0.4294138 0.5017062 0.06120694 0.9396177 0.68188196 0.8856347 -0.010698134 0.93297523 0.49699083 0.09268414 -0.78061134 -0.7396356 0.7932753 -0.22380768 -0.31283158 0.46486655 -0.50251293 0.36954257 -0.9579412 0.6699689 0.11514425 -0.2768695 -0.61102635 -0.31004998 -0.5194106 -0.52965164 0.2567348 0.11819769 0.17467342 0.31472036 -0.6326031 0.24800816 -0.88849485 -0.10187329 -0.52569085 -1.0121794 -0.19499542 -1.094392 0.20007335 -0.30352235 0.46718976 -0.5233916 0.43331525 -0.8802065 -0.81226027 0.67485976 0.6908248 -0.71701914 0.37133586 0.29203078 0.7956441 0.117200084 -0.087833986 -0.66993016 0.19181204 -0.5975973 -0.38720566 0.0661652 -0.25019777 -0.92015296 0.46222785 0.7900474 -0.10303086 0.0059668925 -0.7680328 0.05643478 0.47892234 0.18012927 0.44896355 -0.44441494 -0.54453176 -1.0304751 0.2929311 -0.48931807 0.036257092 0.38040477 0.7819557 -0.5731088 0.26511982 0.44502273 0.091558866 0.08413594 -0.13982719 0.5705945 -0.17302595 0.5514296 -1.0827394 0.6544809 -0.71480274 -0.75731736 0.16213015 -0.5186285 0.3581105 -1.1720345 0.6760161 0.57597226 -0.44456133 0.017714487 0.36316475 -0.23007561 -0.048184436 0.22786693 0.8342753 0.6540784 -0.49650896 0.6264296 -0.4064445 -0.6270461 -1.0648512 -1.0911475 0.2929194 0.9754473 0.88641906 0.34887442 0.7298662 -0.8313696 0.5450849 -0.22917978 0.40377545 -0.78041816 0.38540223 -0.65265423 0.35915694 -0.21236032 0.93755955 -0.8062639 0.64725655 -0.7157396 -0.2060018 -0.4712358 -0.32169923 0.5325175 0.45699814 -0.6601386 -0.8844671 -0.16036682 -0.65677 0.4243706 0.012628216 -0.81759727 0.010532465 0.2503039 0.7197092 -0.6307538 0.49098995 -0.107438914 -0.16881375 0.3224251 0.49940512 0.6011719 0.8914095 0.14030999 -0.65597594 0.75758874 -0.03913163 -0.06706029 -0.3379065 -0.43410003 0.563234 -0.13579662 0.63354665 0.756918 0.39422235 0.69833875 0.2422209 0.033970304 0.09692031 -0.42165753 0.12536633 -0.54506475 -0.31311578 -0.6200244 0.84545624 -0.57009256 0.70684266 0.09260776 -0.7729808 -0.4330348 0.34414047 -0.2158663 -1.0865891 -0.103477634 0.7101375 -0.3452279 -0.05618774 0.81904507 0.3406283 -0.36657837 0.62752736 -0.30018252 -0.20788781 0.62484306 0.31349027 -0.80330455 -0.45504177 -0.036848918 0.29397723 0.5570988 0.08138627 0.43316227 -0.40509966 -0.3032481 0.88964826 0.80859303 -0.59822416 0.5981464 0.6641583 0.6867326 0.37218556 -1.091662 -0.86751455 0.60773027 -0.44652614 -0.56343645 -0.2575356 -0.888046 -0.7226904 -0.348716 0.7510958 -0.5638879 0.31306332 0.054275915 -0.27087605 -0.3454409 -0.5655987 0.26236048 0.3408947 -0.23330325 -0.8983825 -0.48866895 0.5114665 -0.5972869 0.15161416 -0.19535296 -0.37190995 -0.32457766 0.61749804 0.6448668 0.15929098 -0.98138165 -0.1126923 -0.00809993 -0.50158054 -0.5125934 0.80249405 -0.6361051 0.55136746 0.4700026 -0.34867516 -0.84183544 -0.55426127 -0.46785924 0.07381385 0.08741107 -0.1001516 0.33180568 -0.22356035 0.29140005 0.38631153 -1.1303124 0.1653995 -0.17975771 0.5095689 -0.23583396 -0.076759964 -0.7587206 -0.028665569 -0.6609197 0.6167826 0.4720297 -0.3656122 0.43263534 0.38686305 0.9282931 -0.29172674 -0.011581407 0.3349226 0.4631053 -0.20939077 -0.23201828 0.08717388 0.64228207 0.06035773 0.14195819 0.5850087 -0.5740991 0.053899072 0.5742659 -0.84745884 0.12932403 -0.6408336 -0.44906598 -0.13692969 -0.30621392 -0.65901583 0.14508012 -0.6823355 0.14868264 -0.76394564 -0.31684476 0.94436175 0.16367075 -0.31384507 -0.7166733 0.16701773 0.37169024 -0.2061319 -0.7918477 -1.1049021 -0.37211707 -0.5095355 -0.44852883 -0.2989151 -0.18838875 -0.2843359 0.38467288 -0.8509052 0.99923426 -0.281973 0.7035037 -0.57255685 -0.85148305 -0.27711964 0.62708586 -0.8419758 -0.12685905 0.78640276 -0.122450076 0.37120768 0.6385371 0.45455065 0.61294216 -1.0288604 -0.089869045 -0.4074623 -0.5823568 0.16024305 -0.32043478 -0.04349642 -0.4225373 -0.45069435 -0.8342798 -0.641052 0.7181322 -0.7462136 -0.72321796 -0.13491082 -0.0873575 0.1581383 0.7887382 0.42183414 0.04243418 -0.735188 0.061524574 0.6070528 0.778714 -1.1852158 -0.7737493 -1.1606176 0.5093779 -0.123453885 0.74816185 0.8050439 0.8548589 -0.0027240268 0.8736488 0.31496367 -0.007270076 -0.9175661 -0.17235257 -0.7930984 0.17646028 -0.34921274 -0.15423469 -0.3253438 -0.16587356 -0.32512078 -0.38336283 0.6746261 -0.5097581 -0.79638445 0.785044 -0.38041487 -0.2651506 0.3847016 -0.17089535 0.022516372 0.5509732 0.82834846 0.07192573 -0.36903697 -0.76303697 -0.67036027 -0.3550895 0.21189566 0.07747914 0.4825411 -0.41671717 0.66692156 0.183162 -0.62316036 0.11744558 -0.5941307 0.1298752 -0.6120272 -0.12783518 -0.30321965 -0.79781955 -0.24382368 -0.2555448 0.054687046 -0.5179322 -0.89360684 -0.22771652 -0.7466933 0.28891858 0.51876074 -0.48379937 -0.09027007 0.45854166 0.023284608 0.09099777 0.33234 1.0030165 -0.7589259 -0.17613809 0.61566514 -0.6740889 0.6206187 0.31207073 -0.72406095 -0.555796 0.396401 -0.23728622 -0.043006346 0.6228667 0.63512015 0.17573874 -0.85109675 0.67877305 0.29771543 0.2415208 -0.13368426 -0.10172878 -0.50691456 0.8376747 0.2697949 0.004470096 0.0578803 -0.010513685 0.4211908 0.65807056 0.6117519 -0.6858443 0.75447434 -0.3037104 -0.13698107 -0.54033065 0.25116277 0.54179996 -1.0559896 0.12294803 0.30523124 -0.77469224 0.26990777 0.23855652 -0.7904723 -0.47043374 0.5371392 -0.79997635 0.037619762 -0.14246751 -0.68603057 -0.14447623 0.36921245 -0.8570225 0.7572368 -0.23942342 -0.80047226 -0.56379515 0.37989116 0.5462921 -0.16321692 -0.64137816 -0.2781972 -0.4033396 0.023975112 -0.78078806 0.8714909 0.4319135 -0.95458275 -0.19319004 0.796696 -0.5476758 -0.5099654 0.9403299 -0.6368727 0.7159626 0.86253136 0.15350781 -0.737772 0.32473788 0.7950757 0.28041497 0.7082849 -1.1087244 -0.42270377 -1.2373555 0.29229027 -0.75199217 -0.5089785 -0.20735805 0.3322973 -0.46766445 0.5894547 0.16552477 -0.34314594 -0.63890433 -0.06450854 0.06086274 -0.06712664 0.1465184 -0.9516569 0.023527421 -0.38670275 -0.27447414 0.8536936 -0.087888345 0.6092969 0.3362623 -0.74130815 -0.14857025 -0.063850254 -0.47341275 -0.025420733 0.3515653 0.56203544 0.29165086 -0.44818804 -0.36933163 0.3378724 -0.3433859 0.31546226 0.12500064 -0.4719386 -0.21342143 -0.22028664 0.43870282 0.7437058 -0.32240483 7.5945054E-4 0.30976716 0.49216658 -0.52908117 -0.10793308 -0.25321293 -0.32094654 -0.15657064 0.458342 -0.6386177 -1.0598273 -0.62066793 -0.5831563 -0.6862165 -0.0067050783 -0.32147637 0.1310573 0.61083335 -0.1395703 -0.562884 -0.31073818 0.06228931 -1.0084715 0.21567431 -0.3564209 0.5013586 0.5636489 -1.0794852 -0.84436274 0.60487473 -0.7702227 -0.06836936 -0.4185801 0.06923419 -0.6876412 0.50660807 0.31640708 -0.5196592 -0.66617227 0.6377874 0.35883802 0.7855936 -0.06672854 -0.45476007 -0.6627274 -0.54642653 0.13213073 -0.120886266 0.28651556 -0.22951876 0.8958627 0.48188272 -0.08456685 0.08614208 -0.06504082 0.32859385 -0.51895654 0.3885934 -1.1371833 0.36809453 -0.57505286 -0.68295187 0.041460365 0.09646182 -1.0400393 0.19176506 -0.06749758 -0.24292396 0.4961878 -0.94718176 0.10631748 -0.46782026 0.085451774 0.007909045 0.7734218 -0.31578487 0.34730944 0.82468885 -0.047991335 0.87586415 0.09820623 -0.38768455 0.3200474 0.02568304 -0.9909339 0.642795 -0.7628445 -0.5343694 1.0979632 -0.43414077 -0.631288 0.807946 -0.73985606 0.5795825 0.05450533 0.67344105 0.85561335 5.9206923E-4 0.850766 0.9647304 0.6631967 0.65745604 -0.6511052 -0.98376507 0.24729706 0.35620016 -0.87461364 -0.40731034 -0.49313238 0.38935137 -0.35789436 -0.5102811 0.24394965 -0.4541212 -0.15138353 0.077206604 -0.86444646 -0.73874575 0.88566166 0.73313856 0.69094396 -0.2545443 -0.8554087 -0.05393083 0.1934933 0.24476314 -0.83276606 -0.44284815 -0.36670268 -0.28909278 0.40961158 0.02639368 -0.11715676 3.188064E-4 0.045040328 -0.69408447 -0.3436473 -0.44323364 0.7776468 0.15170306 -0.4439118 -0.5716493 0.457377 -0.78765815 0.6119197 -0.55452496 0.28120077 0.5590806 -0.493763 -0.6141056 0.7693993 -0.8852096 -0.5280377 -1.1087924 -0.10654785 -1.2359395 -1.291453 -1.3374734 0.1510607 -0.025845412 -0.77551264 -0.8854378 0.58255106 -0.05894661 -1.2125016 -0.8883077 -0.65602714 -1.0638287 -0.3818619 -0.88241816 -0.37650216 0.34322068 -0.32356828 -0.30256745 0.7096976 -0.8333597 0.018834349 0.45688328 0.15491591 0.7387267 -0.5030045 0.663629 -0.5844879 -0.39004764 -0.042216867 -1.0507084 -0.19765238 -0.48483992 0.40514717 0.72708774 0.42221358 0.4984302 -0.94010127 0.8037233 -0.7910831 0.38684383 -0.07139982 -0.46039695 0.24034253 -0.9140791 -0.91905576 -0.17512684 -0.54707986 -0.8722355 0.20497312 0.4350776 0.22971539 -0.83255595 -1.0249419 -0.41683722 0.013088723 0.5599106 0.12173682 -0.5332259 0.35616004 -1.313041 -1.1048015 -1.1815846 0.5458234 0.057981282 0.7966803 -0.17170353 0.029757097 0.8184917 0.61312973 -0.5900808 -0.4012239 -0.8059274 0.18260491 0.1194805 -0.94628423 0.32883823 -0.89185977 -0.13914895 -0.3485053 0.6438218 0.0062590353 0.67604274 -0.54026514 -0.9166393 -0.15240042 -0.86238915 0.53477556 0.82689214 -0.36593017 5.945402E-4 0.18013647 0.63013345 0.3559509 -0.35904774 0.1939454 0.4199071 -0.8093566 -1.341159 -1.0936066 0.0011569636 -0.5421444 -0.61211944 0.43195423 0.25127017 -0.48305172 -0.9727868 -0.39990178 0.53653127 -0.71065146 -0.93810123 0.5149296 -0.3933969 0.58990324 0.09372916 -0.5356865 0.94005656 -0.74727106 0.837506 0.472631 -0.5384511 -0.42034644 -0.13233048 0.822358 0.3897341 -0.685333 0.6249194 -0.33153138 -0.28516212 0.6752047 0.11404562 -0.41673785 -0.540043 0.31209975 0.07909075 -0.7351836 -0.3960644 -0.035230797 -0.013054362 0.34145316 0.067132555 0.081601776 -0.40981176 -0.49019337 -1.1805112 -0.7390731 0.4970432 0.23771068 -0.37171474 -0.6839829 0.20744048 -0.8773204 -0.9457395 0.24011996 -1.3071012 -0.87225586 -0.81008697 -0.052241616 -1.1304061 0.34503314 0.22135726 -0.6015607 -0.0069554164 0.327734 -0.24419399 0.11468543 0.056926277 -0.18034983 -0.8159608 -0.78883994 0.56648993 -0.21733467 -0.6874796 -0.44538674 0.098284945 0.10267864 -0.16836506 0.7237813 -0.52393633 0.49717578 0.573019 -0.022883153 0.048474006 -0.75624543 -0.32363102 -0.2638828 -0.5926043 0.5638384 -0.31113154 -0.3337336 0.00460007 -0.08062418 -0.8555238 -0.5770958 0.043195672 -1.0598285 0.31121406 0.3671818 -0.48952153 -1.2737172 -0.9377998 -1.0507455 -0.30608782 -0.8094514 -0.48557314 -1.2233495 0.54846466 -0.7929218 -0.70178795 -0.6179175 0.367571 0.57737464 -0.30573264 0.11262932 0.581325 -0.3756293 -0.6005162 0.638563 -0.22215216 0.56033987 -0.83719033 0.85481995 -0.17645906 -0.020365352 0.45279157 0.67863 -0.70773906 0.8861 0.7411447 0.4121659 -0.6209438 0.43345165 -0.40450135 -0.7125413 -0.78774875 0.07939381 -0.6033191 -0.755858 0.23574696 0.19544645 0.6160388 -0.062781036 -0.7604758 0.21750063 -0.59100884 -0.4039032 0.46756566 -1.3479948 -0.9783191 -0.72213864 -0.76732683 -0.4015334 0.022482963 -1.0467757 -0.017239934 -0.49865296 -1.1569626 -0.4023602 -1.2120856 -0.09437715 -1.1730282 0.5381373 -0.15008152 -1.0026555 0.020565981 -0.2406985 0.20839305 0.7759031 0.7831295 -0.70027494 -0.4085272 -0.45608371 -0.42555237 0.6384609 -0.45651937 -0.3802879 0.30075514 1.0601013 -0.4753368 0.9090949 0.79540145 -0.3475516 0.010292449 -0.814592 -0.29556584 0.65182835 -0.3386799 0.7690761 -0.42666668 0.75927526 0.45899075 -0.26497376 0.67782617 0.5100014 -0.3606798 -0.6202076 -0.87437874 -0.07848139 -0.01347582 -0.71949506 -0.7562048 -0.36857766 -1.325435 0.07198343 0.0771557 0.47068465 0.107716806 -0.25860983 -0.9759828 -1.0863731 -0.73232347 -0.23692025 -0.89572537 -0.38426328 -0.13965452 -0.9468921 0.74129593 0.35811245 -0.2812205 -0.78562176 -0.028455405 0.008655629 0.11931518 -0.4866932 0.014046217 0.558042 -0.46318978 0.5450089 -0.035468273 0.58924615 0.5840819 -0.5037703 0.6413935 0.6665234 -0.16742167 -0.1576485 0.6093722 0.5188341 -0.35426027 0.032716725 -1.1544861 0.15001082 0.35736054 -0.72169656 0.6420476 0.2805498 -0.5269985 -0.4532435 -1.2207263 -0.9115256 -0.08613511 0.5776439 0.45116305 -0.26508814 0.52536404 -0.62368816 -0.22449543 -0.012851494 0.5014359 -0.8770589 -0.58786184 -0.65683645 0.66857827 0.3771298 0.6450899 -0.12435614 -0.27203435 0.16183327 0.21274999 0.016660683 -0.33744362 -0.26553473 0.5197353 0.3384769 -0.21395637 0.3083729 -0.6280978 0.73588544 -0.92341053 -0.2625705 0.4682272 -0.23286156 -0.8001646 0.7870435 -0.87631625 -0.9299797 0.6942972 0.58444387 -0.591873 -0.71057236 -0.2521714 -0.962446 -0.010476477 -0.47191206 -0.08169414 -1.146172 -0.4084105 -0.5799197 0.37509352 -1.0269103 0.05088217 -0.24780975 -0.2982705 -0.88878804 -1.2225955 0.6040741 -0.0012454289 0.35706478 -0.055600215 0.7865297 -0.18649629 -0.572062 0.35915473 0.51177514 0.009976287 -0.13810244 0.03414415 0.9164082 -0.8249709 0.56307536 0.80196 -0.20720507 -0.9752322 0.4624502 -0.80857575 0.27577078 -0.25441566 0.72931284 0.5966543 -0.37075713 0.4337878 0.03792371 -0.94161093 -0.47266278 0.74703026 -0.9681533 0.8009322 -0.1155314 -0.516227 -0.8834299 0.5954026 -0.51319325 -0.9842274 0.50519484 0.6760228 0.19486426 0.5209169 0.52402663 -0.2768954 0.260534 -1.1532042 -0.95893216 -0.34820572 0.3623123 -0.65574133 -0.24126238 -0.53423697 0.7070757 0.034352448 0.083790265 -0.59295857 -0.2817998 -0.5916939 -0.5554782 -0.5197917 0.08164212 -0.7839432 0.1992267 -0.8849461 0.026453938 0.2169283 -0.8924268 0.0286529 -0.28418115 0.6883812 -0.9712989 -0.43033457 -0.68830335 -0.12949093 0.30791548 0.20211314 0.68100935 0.39644104 -0.28910998 0.6243571 0.3159367 0.50841343 -0.37445697 -0.5510147 -0.19884099 -0.6511934 -0.7767499 0.5878557 0.8062586 -0.9136327 0.03054959 -0.7187416 0.57717204 -0.6365525 -1.0175418 0.28438815 -1.1173728 -0.5739667 0.28259233 -0.62135607 -0.3766713 0.2805821 -0.16940387 -0.7878555 0.87735134 0.65522873 0.066119604 1.025157 0.8075657 0.9939007 0.08224615 0.29854164 0.42146578 -0.315354 -0.5997749 -0.80854154 0.55650604 0.78077257 0.36835346 -0.17418018 0.61853284 0.40059584 0.8137487 0.79585725 0.5815711 0.8073481 -0.39574194 -0.098697506 0.5510191 -0.28584555 0.43775207 0.4924613 0.80911905 -0.4400135 0.62675357 -0.24120507 -0.51067454 0.76168495 0.779491 0.639598 -0.13192786 0.41977757 -0.7148855 -0.47673932 -0.54849744 -0.5364722 0.7330463 -0.5232717 0.67184764 -0.5192788 0.20110822 0.3709676 -0.46775737 0.048210815 -0.25075316 -0.033633124 0.7457534 -0.6285105 -0.83935535 0.39356545 0.48688453 0.4932066 0.45113975 0.9315994 -0.50290734 -0.31183705 0.40658137 0.102462366 0.02497687 0.14635299 -0.4068011 -0.08645835 0.30890492 0.56519663 0.5117199 -0.4847456 0.3839945 0.8458553 -0.08351108 -0.41357705 -0.7167542 -0.18847534 -0.5658825 0.2770639 -0.18720132 -0.8769296 -0.3577563 -0.31211123 0.37774792 -0.041404225 -0.6859603 -0.39564925 0.61011064 -0.036632802 -0.3946471 -0.29450458 0.6587954 0.38719657 -0.56878304 -0.20542136 0.25348675 0.0039256876 0.17945826 0.22649395 -0.5728684 -0.76818126 1.0691762 0.28949246 -0.062310737 -0.4605098 -0.20616691 -0.006027978 -0.214549 0.5564121 0.37266 -0.276132 0.7362455 -0.25746512 -0.6834743 0.89773786 0.9053 -0.54779816 0.06781401 0.72037315 -0.22874175 -0.52629554 -0.19137362 0.4839069 0.48961532 0.78793275 -0.015959006 -0.97583663 0.5718217 -0.28914317 -0.21382168 0.5272581 0.3084191 -0.813759 0.3342133 -0.5719812 0.93099725 0.41027486 -0.7743645 0.11726631 0.36226332 0.73575515 -0.7517607 -0.3928662 -0.108671986 0.42836642 0.4901576 0.55655116 0.15352204 0.20728858 -0.52410364 0.5198728 0.3556667 0.13708796 0.1148326 -0.77677125 0.93665576 0.007256981 -0.14524424 0.3869707 0.82820415 0.49270114 -0.09185543 -0.50250447 0.3022536 0.47238937 0.7448312 -0.9450154 -0.31415665 0.82575226 -0.84510803 -0.72699195 0.6594361 -0.7103675 -0.93271023 -0.546227 0.24371132 -0.44475198 0.7321013 -1.0158825 -0.9387658 0.41678664 0.49874672 -0.5180714 0.8285292 0.53572106 -0.9907293 0.78283864 -0.5058628 0.61046153 0.7712607 0.1991808 0.40563592 -0.5223959 -0.43680996 -0.014536308 -0.30338004 -0.23559158 0.023618912 -0.46981832 -0.8019442 -0.37830508 0.5153336 0.23204166 0.92943245 0.2341795 -0.43470228 0.38419086 0.7413199 0.39996457 0.7323668 -0.1550833 -0.85613906 -0.391047 0.78857917 0.05294643 0.46559742 0.08117018 0.01632377 1.041206 0.43199888 0.55599785 0.83757895 1.094937 0.701868 0.51166743 0.014356509 0.330349 0.019767972 0.7198578 0.31677008 0.20715223 -0.12255149 0.8098362 -0.20163395 -0.91383225 0.43279514 -0.52243173 0.19985312 -0.93139386 -0.5506817 0.6571602 0.85779256 -0.15566608 -0.49464843 -0.03669046 -0.023527391 -0.24691874 -0.36918452 0.92517555 0.53484464 -0.612081 0.103085786 -0.40315792 0.6935891 0.4331293 -0.04953161 -0.32813817 0.39746195 0.13784535 -0.36452353 0.050227217 0.011934251 -0.6679506 -0.6860258 -0.09960579 -0.23117633 0.5159117 -0.6113169 -0.14537972 -0.126053 0.31752533 0.9475075 -0.8224901 0.6281997 -0.08291342 0.5659705 -0.2900232 -0.29960045 0.012030097 -0.83860874 0.6499307 -0.21362531 0.57634026 0.77034026 0.33648452 -0.14766772 0.6323719 -0.23796713 -0.1192822 0.20610052 -1.0273238 0.5808967 -0.893018 -0.717123 0.45160195 -0.63762873 0.008977455 -0.31850466 0.123633325 -0.3189537 0.99336433 -0.027856585 -0.51995736 0.055094056 0.7670806 -0.66424876 0.16171952 0.8891302 -0.6041066 0.59974957 -0.08648045 -0.47918198 0.2434193 -0.16952196 -0.4541736 -0.77197456 -0.2241691 -0.7924775 0.30039853 0.5762697 0.41905418 -0.04026298 -0.5165422 -0.4559294 -0.020328252 0.85627985 0.3075776 -0.36360577 0.76480377 -0.293702 -0.21966697 0.04918748 0.059148625 -0.67190486 -0.45787683 0.52461135 -0.108256124 -0.18924762 -0.23917139 0.037773702 0.34063357 -0.7704494 -0.50883025 -0.6099866 -0.98024756 0.38785964 0.35873798 -0.12836334 -0.9634906 -0.068629965 0.82730514 0.51273227 0.8452945 -0.35297072 -0.5749883 0.23867005 -0.0044045006 0.79560626 -0.058600336 0.04718212 -0.69813555 -0.10250858 0.5806825 -0.73033226 -0.69662315 -0.20285447 0.46297327 0.69684345 0.3409587 0.58946633 0.24256994 1.1123729 0.6209324 0.26822853 0.023875272 -0.20814466 0.9685853 0.9677812 0.30631292 -0.49809042 0.8313558 -0.4598721 -0.113985054 0.6496446 -0.20127505 -0.03238481 0.6107639 -0.06855726 0.15086812 0.46335363 0.3877476 -0.5416696 0.7751161 -0.30311674 -0.89236474 0.35009333 -0.3505672 -0.10462986 -0.724819 -0.5031978 -0.2645588 0.6072462 -0.26716918 0.41169327 0.27149823 -0.35997614 -0.5915123 0.3532129 0.013831386 -0.08087414 0.38190988 -0.58967453 -0.024294643 0.90726274 0.48332912 -0.1809779 -0.43625453 -0.21940432 -0.32470173 -0.38512897 0.60252255 -0.026391538 -0.020578666 0.6666885 -0.7802816 0.19642842 -0.40232882 -0.7178391 -0.7126141 -0.59807557 -0.84688246 -0.3506016 0.65691894 0.35300395 -0.82946175 -0.83434254 -0.1958431 0.4136564 0.59502643 0.5667599 -1.0716523 0.43461993 0.24513705 0.4416979 -0.46793574 -0.43545052 -0.009146003 -0.8531832 0.1282464 0.031970844 0.90259355 0.6956018 -0.72888863 0.37658554 -0.9664647 0.8190989 0.7086692 0.15166856 0.6911833 -0.9541851 0.6673097 0.56431353 -0.44204953 -0.073478594 0.48416886 0.1260981 0.28083915 -0.113588184 -0.34924582 -0.18646887 -0.0139612835 -0.5414394 -0.8688816 0.3138452 0.84251094 0.1739084 0.7025239 0.51258904 0.6477448 0.60546064 -0.9314895 -0.2664657 -0.6229081 0.9349721 0.7023257 0.058862895 -0.6595567 -0.61218095 0.83851683 -0.42690024 -1.0155886 0.838939 -0.87769735 -0.6162193 -0.16520876 -0.78621006 -0.44027245 0.4674211 0.49392855 -0.3593473 -0.14359191 0.26370582 0.3383301 -0.7695193 0.69727814 -0.70045274 -0.45656928 0.42675126 0.75797254 0.40262124 -0.20770591 -0.05417304 -0.29001233 -0.062073067 0.29981193 -0.14543977 -0.8236149 -0.6858089 0.25065368 0.41516456 -0.45367903 0.29357532 0.42279848 0.40082258 -0.038204838 -0.7387165 0.07840723 -0.5124013 -0.5571163 0.04743559 0.6369802 -0.034532208 -0.20144008 -0.18150748 -0.19772536 0.5870338 -0.80819505 0.2828301 -0.29866666 -0.2500546 -0.42460147 -0.00860953 0.7179453 -0.9861091 -0.2731988 0.74142003 -0.29538217 0.24925132 0.26781106 0.51706487 -0.48476598 0.1352897 -0.20074031 0.73284274 0.46441218 0.2525036 -0.3298542 -0.004917743 0.95438015 0.93420744 0.010553629 0.17083241 0.7489096 -0.29402968 0.5913978 -0.14791262 0.049543526 -0.6115809 -0.31332055 0.8772019 0.39158756 0.5330912 0.7672417 -0.15620081 0.64290875 0.32568085 -0.46974954 0.53762317 0.11222577 0.36086535 0.8923007 -0.5950371 0.6411954 1.0211859 -0.41410792 -0.8144109 -0.34439042 0.56992286 0.55221486 0.061927333 -0.90321136 0.42057154 -0.66007924 -0.70743245 0.18981205 0.2411972 -0.026088905 -0.3334614 0.7499303 -0.28641626 0.44396198 -0.2962537 0.059569146 -0.41784173 -0.6388628 0.5624316 0.7830108 0.75408167 -0.86935526 0.91981703 0.25032675 0.12069693 0.62427163 -0.6556678 0.6765653 -0.61271125 0.5637621 0.4596335 -0.73006153 0.6667041 0.22587653 -0.3644465 -0.27398375 0.85353297 -0.120731406 -0.19566147 0.51467186 -0.2505992 -0.5754325 -0.51030535 -0.97629523 0.119542465 -0.9026083 0.96600085 0.063085474 -0.9226722 -0.40675414 -0.8126709 0.47661865 -0.5133079 -0.21829663 -0.8651293 -0.6048374 -0.42947316 -0.27033073 0.7812813 0.27203646 -0.8778238 0.45927343 -0.67114997 -0.259884 0.3186487 -0.6763643 -0.7848211 0.8906845 -0.23094486 0.63968116 0.56481665 0.3802974 -0.39744735 -0.20677912 0.23533383 0.45409122 -0.6480877 0.3858856 -0.26549706 -0.6324632 0.5835108 -0.5213464 -0.65290356 0.99115664 0.75708765 -0.62978655 0.9067154 -0.49256107 -0.2269149 -0.59013873 0.13826907 -0.62895167 0.07717752 0.3197461 -0.30065402 -0.38923216 -0.6363143 -0.601946 -0.6201052 -0.71922815 0.49716952 0.2340829 -0.316522 0.46182486 0.74939716 -0.8897308 0.6276658 -0.6540332 0.5831078 -0.947867 0.20680329 -1.0154938 0.30825874 0.8008793 -0.26181975 -0.6937674 0.57266676 0.9621744 -0.5497634 0.14870006 0.5251269 -0.18508631 0.30066788 -0.11451574 0.23583265 -0.42833814 -0.1350206 0.12926991 0.24733075 0.7630407 0.83740926 0.3004259 -0.5425121 -0.46770853 -0.64226824 0.8065664 0.29909647 0.086234145 1.0832475 0.46857765 0.50531983 -0.76182973 -0.31593722 -0.81075865 -0.026498912 0.54769546 0.87422675 -0.40212548 -0.85300994 -0.13176906 -0.76212305 -0.8332245 -0.48838905 0.48803478 -0.45135036 -0.33663923 0.68632627 0.08626203 -0.3469411 -0.5441583 -0.36479577 -0.8483703 -0.22829117 -0.6420476 0.7897761 -0.2043438 -0.57155865 0.169906 -0.4593549 -0.56059957 -0.27189746 0.4032086 -0.44397286 -0.6997388 -0.6387574 -0.59326947 0.39336437 -0.22473994 0.0648465 -0.0816378 0.71081674 -0.29143 -0.31888023 0.97814167 0.391529 -0.73393905 -0.34058192 -0.7104488 0.091067255 0.776342 1.0272917 1.0337437 -0.6377366 -0.11404648 0.3630979 0.040181175 0.41564664 0.3592318 0.27887625 -0.5872776 0.33128434 -0.4300689 -0.28143573 -0.04321004 -0.7063468 0.38525054 -0.28813556 0.49823612 -0.9046422 -0.24569498 0.40187877 -0.24093074 0.77906215 0.61475414 0.72030514 -0.64371717 -0.45964906 -0.14738806 0.6058736 -0.056901652 0.15746588 0.894061 -0.49294165 0.4713459 0.84615916 -0.83333945 -0.47014567 0.275575 -0.29485154 0.14215706 0.91868454 -0.68368345 1.0750388 0.37534574 -0.7552244 0.37746817 -0.059014212 0.07263793 0.2973404 -0.35167024 1.041072 1.0516561 0.59763455 -0.55300266 0.2278257 0.02253091 0.05675759 0.7458674 0.48135936 -0.04288476 -0.4865842 -0.7473184 0.11095511 0.5383585 0.40068626 -0.1717061 -0.6073572 0.11629449 -0.376289 -0.9556376 0.2630118 -1.0444367 -0.8441348 0.29221836 0.2621211 -0.04726876 -0.21118018 0.19736187 0.71323514 -0.076974176 -0.42257175 0.7021671 -0.73434234 -0.44086996 0.45336738 -0.47766677 0.4957797 0.9015572 -0.37685314 0.044021536 -0.3903724 0.6971317 -0.24087732 0.40328294 0.85677385 -0.30390295 0.70908093 0.12220644 0.23009625 -0.49213737 0.7809738 -0.4719031 0.15595058 -0.43418702 0.027702965 -0.37371328 0.3673902 -0.49124116 0.3034174 -0.15446843 -1.1027656 -0.66508746 -0.43170452 -0.083776966 0.5309193 -0.10432929 0.3584446 -1.0686667 0.8458869 -0.6634901 -0.56730735 -0.7032262 0.13949792 -0.9012746 -0.23430888 0.47584614 0.618215 -0.27253643 0.40790853 -0.07021533 0.6843322 0.5440157 0.5434777 0.016247097 -0.6039506 -0.5049405 0.22309971 0.32311964 -0.20539555 -0.110699266 -0.7629554 -0.5895496 -0.0050018346 0.65637594 -0.06725858 0.64375633 -0.3776568 -0.47386658 -0.5785549 -0.7200108 -0.61694384 0.6055531 0.74245834 -0.26693952 -0.41012803 0.69967073 -0.37755668 -0.20226403 -0.34492147 0.3365579 0.6700504 -0.37920293 -0.029626077 -1.1270967 -0.39387414 -0.72714204 -0.5413669 -0.27160907 -0.21399845 -0.16060998 -0.49622768 0.61031646 0.16317075 -0.021056602 0.43721685 0.117118426 -0.021962954 0.6694568 0.65210503 -0.5432715 -0.9937829 -0.14176217 0.86740375 -0.77823776 -0.33595398 0.0903621 1.2036135 -0.3981843 0.6533682 0.018110681 0.10942204 1.0633392 0.4825071 0.6377861 0.39933637 0.34936613 0.6059 0.21766804 0.66524273 0.18235464 0.21239085 0.48107943 -0.69079304 -0.3264682 -0.5465674 -0.20428473 -0.5374551 0.17682293 0.37980372 -0.030083623 -0.29160687 0.74015313 0.7101993 -0.8174009 -0.80540806 0.22466706 0.24654035 -0.47490075 -0.1414926 0.6222605 -0.6015977 -0.12075546 0.0866201 -0.35514465 -0.85990655 0.04726026 -0.42150187 -0.0034718746 0.34109187 0.8787369 -0.6345718 -0.6350757 -0.4040842 0.87781334 -0.45895147 -0.3702968 1.2739315 0.2006 1.0723931 0.04115627 0.11668167 0.11732575 -0.22930703 -0.22227319 0.2740177 -0.6453045 -0.49679792 0.49666983 0.9276692 0.8072295 -0.6267025 -0.33681795 -0.13913746 -0.07012111 0.20227231 0.39616308 -0.29634193 0.18225496 -0.98906404 0.17269884 0.59096813 0.20410979 0.27577654 0.134422 -0.0268464 -0.07645337 -0.7104235 -0.32070807 0.6093889 0.3160856 -0.084961966 -0.8597071 -0.64268374 -0.16014986 0.752761 -0.28640527 0.5680478 0.3455979 -0.29760313 0.05193306 -0.104118966 0.119450554 0.25660625 0.22694494 0.41576707 -0.11688401 0.88762486 0.30045798 0.3769167 0.39700323 0.7908205 -0.53677845 0.4137872 0.5697404 -0.37716532 -0.55619985 1.1459867 0.8819182 0.37079927 -0.07511681 0.20248097 0.35308835 -0.81794935 0.28449255 0.02117129 -0.32582182 -0.15351716 0.5304968 0.42903087 0.2495375 0.1303649 0.44268698 -0.5624189 -0.22298905 -0.41520452 0.11246657 0.60040885 0.48211846 0.6271199 0.7835487 -0.6284189 -0.04421698 -0.40140167 0.23822266 0.26632112 -1.0075526 0.3872111 -0.25662145 -0.6292331 -0.42103785 0.4136102 -0.68339735 0.20499386 1.0735786 0.57131535 -0.14557405 1.0998529 0.06827672 -0.5519672 0.40640488 0.0805828 0.9691591 0.4465026 0.5011266 -0.09885852 -0.3853646 0.6097758 0.9161345 0.1380314 0.26562062 -0.33473414 0.61262 -0.6574195 -0.7516373 0.4215687 0.4083401 -0.46182245 -0.68365943 -0.6734951 -0.025658162 -0.61115533 -0.5588444 0.6554581 -0.36218184 -0.39147344 -0.3592537 -0.13792825 0.62411934 -0.33751476 0.3701327 0.9014335 -0.4591705 -0.47332257 0.27433217 -0.69983166 -0.65812457 -0.114670485 0.00986896 0.48458967 0.46895355 -0.088877805 -0.5009011 -0.03899603 0.1453324 0.39133334 1.0334691 0.5668821 -0.2988473 1.1497903 0.89374363 0.38362977 -0.5779 -0.7266957 0.010158047 0.46732283 1.0330062 0.7590556 1.0571404 0.91035956 -0.2521608 0.24733375 0.62520117 -0.47675186 -0.41433147 -0.21033831 0.7056229 -0.45344537 0.14519621 -0.8033409 -0.46191248 0.50728863 0.60680854 0.19417115 0.39517644 0.6782899 -1.1060007 -1.1707982 0.20384058 -0.5706238 -0.6160349 0.84616554 -0.62315243 -0.34437782 0.6286791 0.93801725 0.5059692 -0.5729029 0.72039783 0.8770128 0.6013292 0.99597883 0.22855796 -0.09210721 0.7578468 0.9822913 0.5483046 0.85333675 0.11866917 0.69088906 1.1040119 -0.6284878 1.1633855 0.15440768 0.7652799 0.9721828 0.19878751 0.93063486 0.7139807 0.80433965 0.77309376 -0.08239726 0.6354684 0.38636798 -0.40142313 -0.86275214 -0.3711309 0.08335667 -0.21880808 0.6571382 -0.6870855 0.03705788 -0.28830826 -0.31787103 -0.13766557 -0.24548528 -1.0072572 0.49068564 -0.64113957 -0.6486149 0.23994088 0.7815837 0.07483889 -0.9759661 0.7509835 0.38365194 -0.68115735 0.120917894 -0.59999245 -0.7250877 0.29488823 -0.8479199 0.9292883 0.7384898 0.58008903 -0.31812853 0.030016951 0.591352 0.45381737 -0.5345556 0.90540224 0.9469096 -0.2630052 -0.07997384 -0.34374642 1.0375488 1.1429983 0.08835987 0.7598447 0.82851785 1.0549617 -0.40379 0.26888952 0.24607004 -0.0156052895 0.83093256 -0.90374005 -0.4974425 0.69684535 0.69431275 -0.86114144 0.4035637 -0.24747819 -0.25556046 -0.9486799 -0.7313716 -1.0135102 0.5957025 -0.15852398 -0.3744559 -0.80928487 -0.6859535 0.29916546 0.7064558 -0.5685006 0.024686107 -0.0014602721 -0.6747413 -0.4944501 0.840069 0.7789745 -0.08259476 -0.65242934 -0.19598341 -0.30615443 -0.28061473 -0.73107016 0.2079254 0.20164733 0.8980562 0.53571844 1.0013647 -0.015692908 -0.19993846 0.2154836 -0.3315984 0.7681654 0.8495701 1.028934 0.52284056 -0.5843523 0.40006164 -0.65039337 0.25018573 -0.067373894 -0.78712386 0.2602029 0.11841352 -0.7186585 0.23331733 0.66991293 -0.3433555 0.61789584 0.47019768 -0.4653447 0.13329062 0.34482247 -0.84857595 -0.42652395 -0.08376895 -0.96284366 -0.3409007 -0.380811 -0.27915147 0.40321106 -0.27936426 0.40771437 -0.54093707 -0.089794055 0.30259088 -0.7755883 -0.37391523 -0.52530265 0.74041027 0.37157765 0.3940707 0.33623096 -0.1823263 -0.866728 0.91103834 0.13046673 0.5381424 -0.3877867 -0.7368767 0.83949965 0.92915165 5.531038E-4 0.81155413 -0.5272711 -0.017139195 0.17340067 0.04494188 0.8508296 0.13981213 -0.26246518 0.32730845 0.18214847 -0.45010987 -0.02903946 0.21324572 -1.2049588 -1.1107625 -0.028519215 0.46499398 0.4451523 0.6517417 0.32096744 -0.9032778 0.7802833 0.46701118 0.66855466 -0.88296443 0.63629436 -0.89013326 -0.83135146 0.46078044 -0.7510914 -0.8825103 -0.4326996 0.3539324 -0.5807095 0.9119567 -0.6555562 0.583185 -0.62427944 0.65525484 0.43447313 0.19260359 0.8459838 0.91829795 0.6838472 -0.6984158 -0.255464 -0.21705018 -0.32634613 0.29838845 0.6013008 1.1357065 0.56767416 0.27212295 0.96253574 0.41427284 -0.3537058 0.4609554 0.3196561 0.2209729 0.054291837 -0.08135974 -0.73791254 -0.46611047 0.13527562 -0.9100297 -0.26358306 0.5525299 -0.020468906 0.19545043 0.33434984 -0.5480943 0.7621334 -0.4496535 -0.6434612 0.5972222 -0.90499794 -0.7199838 -0.6891316 -0.5808627 -0.66312116 -0.07850103 0.65294373 -0.27946645 -0.7870551 -0.63474715 -0.7710856 -0.42081627 -0.89257324 0.276629 -0.7803872 0.836226 -0.13225435 0.27515897 0.5539461 -0.8301022 0.46672022 0.36120984 -0.29335877 0.9561535 -0.84555626 0.5110903 0.35258716 0.10997142 -0.09369347 0.17123072 0.3648091 -0.2233981 -0.43238547 0.5445538 -0.9739662 0.028298786 0.30852726 -0.9102498 -0.19387287 -0.16007067 -0.36947423 -0.7061506 -0.5535919 0.17946039 0.3514085 0.63245255 0.3849573 0.656734 0.27182215 -0.78374654 0.42490727 -0.39545995 -0.646292 0.42541024 0.52451146 0.66366327 0.38481638 0.023632118 -0.061936535 0.4544308 -0.6078663 -0.86181825 0.6326876 -0.6192896 -0.17902647 -0.49043524 0.28080717 0.056579966 0.24898891 1.0027884 -0.609256 0.6062758 0.9804947 -0.69261265 0.1415217 0.8075779 -0.389927 0.5342462 -0.39801645 0.43646246 0.97086406 0.22255951 -0.3202313 -0.85485446 0.41562006 0.2493135 -0.73990303 -0.11607927 0.2239155 -0.9568563 -1.0502653 -0.9810299 -0.57715225 0.6533762 -0.50411576 0.30945802 0.25828642 0.4137764 -0.9166594 -0.32131514 0.48021078 0.7661678 -0.9867109 -0.9414312 -0.31928325 -0.9445667 0.16258287 -0.94404316 0.5029496 -0.86220425 -0.5202822 0.7717401 0.3489849 0.06427238 -0.45648983 -0.13730308 0.45128378 0.6330468 0.31679228 -0.91342664 0.32545915 -0.74733824 -0.24393812 -0.62802416 0.90239537 0.70225877 0.8945171 -0.056577932 0.34986213 -0.9135267 0.7729568 0.3608019 -0.0128562 -0.7913247 0.19164713 0.23033921 -0.65673375 -0.6450664 0.5041398 0.36862677 -0.55926603 -0.4762145 0.533245 -0.79040146 -0.1828902 0.019336173 -1.06585 0.62698853 0.7032652 0.66545755 -0.040707655 -1.0471784 0.74457884 0.7399634 0.67221445 0.26735768 -0.6425722 -0.5756467 -1.0067266 -0.4048885 -0.369195 0.8148244 0.584669 -0.105495274 0.8739668 -0.85447526 0.54526675 0.1626573 -0.47113007 0.57015383 -0.89814216 0.47462422 0.6402625 -0.28568402 0.8812575 0.5149922 -0.4308293 -0.98220193 -0.6776129 -0.97350746 -0.452535 -0.24899289 0.56983703 0.7294703 0.17485398 0.1427971 0.38715696 0.20168035 -0.8530825 -0.546172 0.6809854 -0.72035354 -1.0737225 0.106655136 -0.43042746 -0.050148953 0.71713793 0.8411268 0.78015846 0.80626565 -0.14626482 -0.42344278 -0.7664174 -0.55871254 -0.28720406 -0.9373254 0.25466436 0.17771596 -0.36825356 -0.9753822 -0.5363461 -0.5501668 0.40256575 0.72398007 -0.5400206 -0.97780365 0.44150028 -0.44536486 0.16950499 -0.51481146 0.29984587 0.11768432 -0.24200858 0.18955597 -0.59835553 -0.7126246 -0.21130508 -0.19557971 0.04243663 -0.75551355 -0.783021 -0.6264441 -0.39345703 0.073779695 0.03292038 0.22433142 -0.29580727 -0.9492206 -0.5535741 -0.92812693 0.081790745 -0.7437354 0.13392177 0.7964425 0.11898133 -0.8191458 0.18130624 0.24002612 0.28945953 -0.8011145 -0.60454184 -0.21012057 0.21904553 0.36560023 0.25317603 0.20888284 -0.7264006 0.53086495 0.075016096 0.5586796 0.06478778 -0.929943 -0.06741633 -0.2881454 0.45396775 0.24719039 -0.45188898 -0.9633332 -0.5685687 -0.7681843 -0.8385941 -0.610648 -0.34907648 -0.6487071 0.45656154 0.1925113 0.26229796 -0.59891325 -0.3976576 0.13146621 -0.8957804 0.35167947 -0.8929517 -0.59075487 -0.60867155 0.07721493 -0.84488857 -0.5332464 0.555959 0.51024914 -0.23480362 0.38457578 -0.9200044 -1.0368708 -0.32061163 -1.1247687 0.5552573 0.87227035 -0.9102548 0.8387896 0.31131855 -0.05465012 -0.36757016 -0.75373304 0.59763503 -0.7701457 -0.2437593 -0.26579115 0.4931908 -0.19747598 -0.06090205 -0.09463816 -0.6197269 -1.0634174 0.41384184 -0.64508367 -0.5920458 0.9202465 -0.15537167 -0.2410488 -0.7774723 -0.36734894 -0.2031826 0.27739316 0.31335035 0.73465115 -0.56907433 -0.6390605 -0.013685662 -0.016183142 0.12906088 0.17672892 -0.6220187 0.036651887 0.7887711 -0.9305628 0.04977675 -0.9141865 0.124946065 -0.77234375 -0.7268776 0.09963928 0.40727505 -0.50120014 -0.9835208 -0.982131 0.4138942 -0.06704061 -1.0085571 -0.97902924 0.7013039 -0.9768407 -0.34411108 -0.05568295 -0.67241895 -0.28942195 -0.5469014 -0.60287786 -0.14814179 0.49425846 0.39595345 0.4588561 -0.6104155 -0.9343684 -0.20139723 -0.4997742 -0.98337644 0.02512811 -0.5258309 -0.33812478 0.5243857 -1.0665549 0.45566812 0.051043086 0.00803235 -0.58523196 -0.18885726 -0.5659293 -0.13668555 0.4645098 0.5343881 -0.030618282 -0.511195 -0.35507524 -0.80095875 -0.29541767 -0.7781122 -0.7269501 0.6904705 -0.99173087 -0.4469833 -0.1670323 -0.9135042 -0.11339318 -1.0763996 0.38578388 -0.13049163 0.22568136 -0.81323653 -0.17464682 -0.36984995 0.07738176 -0.27195153 -0.6283556 -0.6535134 0.5715357 0.42846307 -0.3795023 -0.37878776 -0.42413235 -0.8419339 0.28653207 -0.70259655 0.5821141 -0.45150423 -0.36162686 0.2979013 -0.47758847 0.21623737 -1.0007077 0.0067920443 -0.37222806 -0.10910984 -0.5323621 -0.13685481 0.18351038 -1.1048325 -0.62195957 0.09522827 -0.11618012 0.043532528 -0.9650222 -0.7644479 0.8324999 -1.0535173 -0.029875398 0.033125926 -0.58591896 -0.16216892 0.4933813 -0.5836627 -0.3755819 0.08273864 -0.46126947 -0.21727638 -1.0613947 -0.33626783 -0.35182852 -0.17783083 -1.0293404 0.3220127 -0.4106945 0.2710257 0.82751584 0.08718323 -0.81846166 -0.43102336 0.08465992 0.48626503 -0.3363605 0.13215525 -1.0289387 -0.7940944 -0.6605536 0.68047357 0.3756417 -0.54998505 0.26522085 0.7056461 -0.0054157493 -1.0671691 0.3523201 -0.7700138 -0.006415907 0.20964609 0.4239485 -0.61235595 -0.2912671 -0.6453949 0.031800747 0.20425552 -0.30403855 -0.86317873 -0.5694278 -0.09655073 -1.0350491 0.01971684 -0.010054695 -0.15717891 0.17367674 0.7750463 0.03589796 -0.6932097 0.62208 -0.039489854 -0.38329834 -0.9496595 0.116230264 0.41359824 -0.7232912 -0.22758023 0.9202901 0.043120064 0.29054126 -0.6190064 -0.036621787 -0.36007848 0.099372044 -0.25380698 -0.29812536 0.3645528 -0.90751064 -0.45051238 -0.31578952 0.18231082 -0.40615952 -0.11072928 -0.09377579 0.53484875 0.5859891 0.016222214 -0.46138564 -0.97723913 -0.003395706 -0.39824125 -0.29464528 -0.0087930765 -0.81310135 0.6349318 -0.41499937 0.16718982 0.3701556 -0.94510424 -0.0992791 0.7479586 0.03888742 -0.65887296 -0.18897575 -0.9798826 -0.6049614 -0.258341 -0.8519415 0.016212538 0.089014724 0.58201164 0.28098556 -0.8406877 -0.33735928 -0.57337976 -0.76587975 -0.7494292 0.59651804 -0.080843806 0.4156901 -0.7652209 -0.22456045 -0.06945197 -0.22880358 0.5774801 0.057591297 0.33906174 0.66927755 -0.9565886 0.21787445 -0.8606419 0.047946576 -0.4739064 -0.84655476 -0.34647325 -0.87116784 0.38800564 -0.5309984 -0.9401307 -0.9825236 -0.7857087 -0.14309481 -0.35668814 0.2615549 0.53463703 0.5832982 -0.8447178 0.29907194 -1.0680444 0.25798127 -0.6173158 0.4058203 0.15517953 0.44686502 -0.17103024 0.80302656 0.80400324 -0.45597187 -0.8489987 0.12854595 -0.8781503 -0.27171123 -0.9531752 0.6517196 -0.34057784 -0.12401548 -0.8433454 0.6146357 0.80887264 -0.24330857 0.6106344 0.24598213 -0.48714092 0.5637133 -0.5197007 0.4624687 -0.11869366 -0.7817308 -0.8042258 -0.63283056 -0.8359886 -0.6994151 -0.75046563 -0.24535134 -0.36769474 -0.1141912 0.4638149 0.4017882 -0.047890343 0.48086196 0.15459111 -0.76891345 0.38463297 0.1885515 -0.45462835 -0.7474824 -0.5502471 -0.07220269 -0.6569664 0.39799622 0.5187069 0.47622582 -0.86605656 0.37776175 -0.45846856 -0.53081316 -0.74515474 0.7419092 0.42326853 0.19626081 -1.2877808 -0.05910223 -1.1086779 -0.7471883 0.60738003 -0.5118318 -0.26922813 -0.0019599036 -0.7886962 0.65079254 0.6991796 0.41102457 -0.8565915 0.63786495 0.24539337 -0.06776981 0.14206305 -0.46941614 0.8107983 -0.83866924 0.2687089 0.7506238 0.15340324 0.7575326 -0.6728757 0.6225879 0.73531747 0.83966064 0.7948726 -0.4550417 -0.38564003 -0.8103128 0.6805966 -0.82143366 -0.513865 -0.48412403 -0.006633107 -0.7602384 -0.43252182 0.6778545 0.7662068 0.6335927 -0.54747176 -0.013536281 -0.9712521 -0.8399804 -0.56212234 -1.1049052 -0.6335171 -0.12300113 -0.35646343 0.5592856 -0.6143285 -1.0882534 0.43217263 -0.14706348 0.0951825 0.28209347 -0.88392824 -0.8003502 0.61430323 -0.97341794 -0.8434402 0.63417786 0.814182 -0.979373 -0.63802 -0.12101341 0.9293256 -0.36298287 0.031160988 -0.4554977 0.32488504 -1.0265821 -0.4960856 0.76180404 -0.15206274 -0.4642839 0.8128727 0.14872953 -0.34618476 -0.8239432 0.24880916 -0.53638375 -0.20003131 0.5208145 0.54258335 0.022932898 0.45856774 -0.6369483 -0.8834038 0.55583376 0.14301364 0.37457696 0.5149114 -0.16861212 -0.300288 -1.1687324 -0.8646266 -1.0380688 -0.12553692 -0.408535 -0.67674035 0.2102675 -0.60226685 -0.5342253 -0.85411006 0.19307007 -0.53749627 0.30807027 -0.3463745 -1.1773372 0.30328193 -1.0440975 0.40873215 -0.5714691 0.14774978 0.057428356 0.42481095 -0.18488866 0.2942335 -0.21339078 -1.1926863 -0.16796182 -0.2810143 -1.0153145 -0.073377565 -0.58456683 -0.42034176 -0.7100467 -0.518599 -0.83335507 0.12370973 0.028388541 0.09649687 -0.3376266 -0.6639096 -0.9039276 0.7360929 0.5766909 0.63444227 -0.019582951 -0.49512914 0.6812778 -0.6191109 -0.3980422 0.45806444 -0.08811182 -1.103438 0.24236053 -0.56188506 0.0619134 -1.0501012 0.5060996 -0.6878166 0.34545815 0.13100761 -0.9544165 -0.9860352 -0.27394462 0.30956754 -0.54338175 -0.56597054 -1.0020325 -1.0763474 0.29525062 0.35300508 -0.2203782 -1.0925359 0.0541125 -0.30807808 0.12003898 -0.9616598 -0.42372844 -0.31072062 -1.1663654 -1.148803 -0.6018629 -0.12850109 -0.90242386 -0.42605567 -0.8535645 0.5681664 -0.3148624 -0.050773073 -1.1009353 -0.9643263 -0.14404671 -1.0966649 -0.07631498 0.58814913 0.014673486 -1.0792036 0.04707611 -0.3998926 -1.115728 0.37607238 -0.60283613 -0.8564499 -0.6349976 -0.5384699 -1.1617091 -0.2531905 -0.0023137813 1.1764605 1.2376832 0.414426 0.838008 0.41047886 1.1776125 0.5545368 0.8163019 -0.37910047 0.009156225 0.9816669 -0.8320462 0.3828945 0.055317637 0.5185468 0.052999347 -0.80510974 -0.06732336 -0.20036736 -0.15781443 0.72146094 -0.74981856 -0.49872127 0.21818364 0.6132934 -0.41751832 0.5712251 0.108492285 0.24019073 -0.81605923 -0.46058655 0.24836354 -0.54709035 -0.12691556 0.17691228 0.9361189 0.82249564 0.08241123 0.3885907 -0.8113296 -0.49674395 0.40822563 -0.757263 0.2446053 0.7360169 -0.17638619 0.20567964 1.0781153 0.6994233 -0.1695236 0.6571954 0.64591026 -0.73915344 -0.10536457 0.7340813 0.90950114 -0.49183866 0.39351803 -0.63983995 -0.4611943 -0.08905236 0.53104055 -0.37783557 -0.35959113 -0.27899545 -0.49402103 0.24144767 -0.3687796 0.5596884 -0.9824538 -1.0843793 -0.25790438 -0.22785799 -0.20197633 0.24854729 -0.7544203 -1.1086149 -1.1927984 0.27769253 -1.2313771 0.01708548 -0.18232864 -0.46439755 -0.87812805 0.40442535 -0.34147897 0.28796908 -0.17357604 -0.8640982 -0.7591844 0.99405676 0.040414583 -0.6430622 -0.44196936 -0.059890825 -0.118072495 0.58101404 0.5838552 0.8538798 0.32816523 1.0419761 -0.19087587 -0.5329273 0.9020394 0.94737047 -0.4486656 -0.42648622 -0.20884934 -0.55979687 0.0681411 0.80961907 -0.24393903 -0.82294905 -0.9899513 -0.9376197 -0.15989894 -0.20369352 -0.42110685 -0.93660337 -0.6775703 0.65578943 -0.9806615 0.17188905 -0.464839 -0.08919413 0.03936551 -0.7447137 -0.69720674 0.36112684 0.35756943 0.20742735 0.19152346 -0.3803553 -0.4599192 0.37991786 -0.093470335 0.28676313 -0.43494964 0.058213588 -0.16700701 0.6911418 0.63818085 -0.5271418 -0.38107818 0.5190865 0.2477806 -0.09632954 0.42693627 -0.1769677 0.99263644 0.444974 -0.4359621 0.043224458 0.5861994 -0.32369876 0.32199815 -0.2123967 -0.19107638 0.05471924 0.85666835 0.8170487 -0.28482857 -0.08412398 0.096688636 0.16928983 -0.48279312 0.5163192 -0.5218825 -0.5138683 0.15662609 0.49832347 -0.8677388 0.08538862 -0.13458683 -0.9120357 -0.9404869 0.07198807 -0.19923075 -0.49673575 0.47137794 -1.1664252 0.6129319 -0.6648158 0.21999551 0.008881105 -0.66418666 0.36435726 0.042676874 0.31354916 -0.7865559 -0.3220968 -0.5000566 -0.52553505 -0.35366136 0.44845536 0.79358983 0.5887508 0.25299054 0.085178226 -0.29644415 -0.19904092 0.8710344 0.577148 -0.11841426 0.8712361 -0.6644086 0.013135941 0.8504032 -0.2340217 -0.5797946 -0.27380246 -0.4441914 -0.02371645 0.24950175 -0.38239992 -0.8170571 -0.9306961 0.47805777 -0.6706463 0.88994634 0.70613503 0.13726297 0.3621659 0.5906954 0.4409588 -0.42873055 0.56598955 -0.07269399 0.11604048 -0.24490096 0.16993736 -0.23093978 0.27120823 -0.8019498 -0.10963521 0.27100974 0.6085027 0.55582213 0.3151214 -0.17447457 -0.54299563 -0.5689649 0.83220905 -0.023548586 -0.2374038 0.62418234 0.06656957 0.862078 0.37093413 0.84174556 0.73766214 1.105962 0.100825205 -0.786875 -0.763066 0.6177758 0.16396694 -0.5581757 0.39595383 0.36564246 -0.5257322 0.18249193 -0.22612445 -0.09552315 0.8280982 -0.30823353 0.33513254 0.6387895 0.70097494 0.8894371 0.9643944 -0.48757783 -0.38586584 -0.25645652 -0.26781052 -0.22853471 0.5819731 -0.890202 -0.6167389 0.6708895 -0.28903753 -0.538939 0.074523926 -0.91960233 -0.7867072 -0.48861656 -0.8331708 0.040498294 -0.19559407 -0.7135428 -0.94510466 0.8848269 0.015582442 -0.60046047 0.5491544 0.16182008 -0.11733435 -0.39203498 -0.5554978 -0.40688267 -0.3164772 0.20512362 0.91077894 0.25563133 0.37483904 -0.08196894 0.23701876 0.5446816 -0.70190394 -0.40919465 0.15923908 0.55580133 0.3364751 -1.0653063 -0.53388053 -0.23395649 0.06728082 -0.6283009 -0.067545936 -0.61805564 -0.73841643 -0.33244252 0.7194095 -0.58788794 0.03851513 -0.8100949 -0.74596006 -0.15292326 -0.8406799 -0.37038466 0.8768118 0.073752835 0.40617698 0.5800163 -1.2232641 -0.06272494 -1.1416253 -0.17671047 0.47599912 0.5554175 -0.3979561 -0.7790309 0.7296634 -0.44217193 -0.5227686 0.011488177 -0.13118945 -0.1703967 0.95661455 0.5599339 -0.19869466 -0.03879571 -0.59958917 -0.3133439 -0.46035677 0.4689018 0.51854414 0.48355898 0.26445827 0.242622 0.57050306 0.6641909 0.053939447 0.058707584 0.48097706 -0.14517781 0.42443505 0.08976087 -0.5597125 0.07427402 0.63901716 0.418143 0.14172632 0.41679403 0.070155405 0.7315242 -0.680518 -0.86076343 -0.6003152 -0.89040864 -0.5218437 0.29194844 -0.22755615 0.7204931 0.4527729 -0.60525686 -0.45970652 -0.039632864 -0.69589525 -0.30820456 -0.2716415 -0.7017433 -0.11955663 0.5311052 -0.38839296 -0.17275375 -0.0021883284 -0.2077512 0.9830243 -0.2785741 0.03960574 -0.5041759 0.97909564 0.438565 0.49950525 -0.68314576 -0.009932781 0.6946621 -0.22368048 -0.38482454 -0.4828147 0.59909546 -0.7721739 0.2947275 -0.112489164 -0.0062216166 0.5071169 -0.58754796 0.2930729 -0.13822305 -0.72457963 0.5365851 0.6940774 -0.021338278 0.1228262 0.23530096 0.74635285 -0.70406497 0.79705566 -5.608417E-4 0.44974962 0.113016784 0.85288906 0.5702681 -0.10627352 -0.65855503 -0.16785744 0.35455063 -0.6300449 0.64201754 -0.2560096 -1.0495642 0.040256735 0.812862 -0.62581635 0.18647242 0.5493677 -0.15143655 0.89531094 -0.773965 0.16214964 0.9477821 0.051208764 0.58055913 0.05083952 0.8485096 0.80400074 0.78737724 -0.5569955 0.6193657 -0.6748455 0.8139396 -0.9148732 -0.15225631 0.2168215 -0.61780924 0.14171708 -0.15119979 0.73688924 -0.20588626 -0.5480115 0.6936294 0.09101682 0.27406713 0.6373013 0.16849184 -0.8976941 -0.038562737 -0.68950415 0.496853 0.19596004 0.16162802 0.5715929 -0.029450433 -0.82338506 -0.3789485 -0.45466548 0.28445956 -0.8610123 -0.3276051 -1.005657 0.50860363 -0.3532463 0.8063292 -0.40966251 0.4478738 0.4301838 0.22658311 0.74632436 0.9517216 -0.5887859 -0.7709663 0.4166763 0.35086015 0.7142446 -0.07584235 -0.18529205 0.018264005 0.15260702 0.63222176 -0.119341224 0.5191294 -0.5891083 -0.0039538946 -0.5844144 0.41894543 0.4848372 0.39468133 0.4776318 -0.45217195 0.71339816 0.22898175 0.4490023 0.57311624 -0.061693914 0.83864874 -0.23920855 -0.32546183 0.07249522 0.3172536 -0.16125925 0.689799 0.8630058 0.7783699 0.7415792 -0.24108921 0.72626567 0.37361318 0.5296977 -0.05683161 0.07935386 -0.8990147 -1.0112125 -0.9447233 -0.076981895 0.36615834 0.16829102 -0.28403723 -0.85128486 0.18674555 0.43207264 0.37893608 -0.44448778 0.88630545 -0.15548912 0.042040512 -0.73244166 0.9637007 0.09149993 -0.8174919 1.0091289 0.35726947 0.25230393 -0.3489107 0.99064934 0.90258396 -0.5144433 -0.7061661 0.7153941 -0.4092008 0.27692667 0.9230923 -0.27789292 0.019651117 1.0234555 0.26763886 -0.9124167 -0.73930365 0.49320102 -0.7455974 0.84202045 -0.9407281 -0.6290222 0.86981237 0.49807918 0.8188124 0.1769019 0.51659906 -0.38965866 -1.0324668 -0.5055454 -0.8966315 -1.0862088 0.21355157 -0.5701931 -0.42008996 -0.52582073 0.73915386 -0.4163795 -0.030243846 -0.44347325 0.1314741 0.3081966 -0.7799803 0.92946315 -0.8528364 -0.2956142 1.0441699 -0.28915623 -0.2412669 -0.381357 0.5374321 0.3202018 -0.01916114 -0.62319046 -0.50735307 0.37502995 -0.81023806 0.5623217 0.5811167 1.1128379 -0.686714 0.8150433 0.08411518 0.7479204 0.3036843 0.024496369 0.7956525 0.88211656 0.4891754 -0.83920085 -0.483151 0.2718012 -0.1672838 -0.15041327 -0.62256134 -0.8356886 0.58926404 -0.81868404 0.6466106 0.4138235 0.61891747 -0.98752385 -0.39624932 -0.9991433 0.047108565 0.39137432 -0.7096374 -0.11864365 -0.3504409 0.012293196 -0.79111755 -0.24075037 0.06186683 -0.13702624 0.14177418 0.195615 0.6202066 0.7702071 -0.71658635 0.79478097 0.4822055 -0.23063602 0.89516926 0.5249045 -0.38134494 -0.16867022 -0.4363703 -0.37471282 -0.16231135 0.13229918 0.12263556 0.17376246 0.8044616 -0.3321429 -0.7984033 1.1281328 0.9875651 1.0024304 -0.6146439 -0.1780857 -0.6034254 -0.7408978 -0.44000867 0.06251662 0.9088597 0.006721743 -0.22501397 -0.8922955 -0.7546444 0.247414 -0.96510434 0.3627707 0.1393766 0.02455002 0.5323758 0.6909027 -0.52913713 -0.16070786 0.048166398 -0.6805756 -0.11896275 -0.9286245 0.5440244 0.3570719 -0.26967147 -0.58149105 0.48486966 -0.676435 -0.6602439 -0.6635071 0.70269704 0.6451465 -0.14464986 0.96828926 0.47558537 0.39423195 0.50472957 0.30140334 0.73758996 0.70864516 0.9435414 -0.38479453 -0.4892936 -0.39228168 -0.2818098 -0.6928165 0.85602564 0.60247785 0.15675542 0.8848662 -0.62781143 0.5971799 -0.3019159 -0.8692266 -0.47880766 -0.5725316 0.6518726 -0.70869696 -0.45981365 0.30074993 -0.0069210674 -0.116062015 0.35150114 -0.31447357 -0.81378996 -0.7389396 0.09454945 -0.14920051 -0.016983623 -0.48933375 -0.55871326 -0.47199723 0.84147066 0.43828046 -0.7576484 -0.0667295 -0.33331597 0.56764054 0.4256984 -0.49655002 0.96153873 -0.19589458 0.12064973 -0.53921765 0.26221296 0.9642316 -0.40636504 0.8694732 1.0455971 0.22364746 0.3306832 0.73590046 0.31400478 0.001069002 -0.06551369 -0.6526613 0.35355583 0.75043505 -0.6356795 0.21216333 0.16182253 0.44397068 -0.67781025 0.45811212 0.31575963 0.40008855 0.4383825 -0.7137537 -0.621759 -0.83103794 0.5117053 -1.2135963 -1.0661243 0.10278321 -0.31805384 -0.50422204 -1.0113223 0.4094478 -0.5648227 -0.8343629 0.54427725 0.63829404 -0.5893155 0.7833291 0.39118335 -0.5758911 -0.5371643 0.6515751 1.0404058 -0.083745286 -0.084094435 0.058382917 0.9737496 0.76393455 0.4370903 -0.16244362 0.9749295 -0.5375773 -0.62816525 0.42982808 0.59038466 -0.71542233 0.896311 0.8856442 0.57250154 0.6107241 0.6234581 1.1600623 0.534087 0.55020154 -0.13062851 -0.028449921 -0.43866682 0.014828937 -0.7761161 -0.32299972 -0.4113547 -0.32818973 0.16766109 -0.6640316 -0.091507666 -0.39102876 -0.26270097 0.09553992 0.21672526 -1.2133194 0.62151 0.9340052 0.7545582 -0.54354566 -0.21449718 -0.57770014 0.6901425 0.28703427 0.949677 0.77436453 1.0019226 0.35664058 0.018088225 0.9586264 0.23205635 -0.04609194 0.3395791 -0.6938633 0.9244742 -0.331926 0.12495868 0.859135 -0.39952564 0.09100788 0.45303172 0.99048746 0.5997445 -0.37616542 0.5316564 -0.14409803 0.63852024 0.061888564 1.0881721 0.430487 -0.6613931 -0.2554668 -0.21165997 -0.43115434 0.9480921 0.2667191 0.6220521 -0.6526945 0.22173609 0.08623942 -0.3001168 -0.22422116 -0.20933995 0.45044485 -0.72835344 0.16423081 -0.7038049 0.21473499 0.5948227 -0.030663608 0.30340964 0.0037765186 0.62451106 0.47364432 0.47155663 0.6571434 0.16978 0.72824425 -0.6531948 0.35436454 -0.7820672 -0.14173622 -0.29555357 -0.13589917 -0.6737946 0.1629675 0.905858 0.002881596 0.69293344 0.23863216 0.5584488 0.27490285 0.72412634 -0.76604974 0.8054059 -0.61517525 0.4398989 -0.5320096 1.1132615 0.91364014 -0.3521768 0.15599188 0.05333386 0.19653459 0.69010276 -0.035025127 0.38491353 -0.67425203 0.84917676 -0.5724071 -0.66584367 -0.7384923 -0.014905241 0.59677786 0.31988725 -1.235218 0.8142648 0.44796455 -0.4033806 0.003699837 0.1071813 0.53464806 -0.2632064 0.3057848 0.449446 0.70119697 -0.07985127 -0.3132929 -0.5910353 0.89690435 0.04789143 0.85493225 -0.36067408 0.40101108 1.1166133 0.82458776 -0.7746823 -0.35781226 0.7374098 -0.66860396 -0.42148274 -0.44712174 -0.23422115 0.8089871 0.5363727 0.46878478 1.0181574 0.927325 0.6708998 -0.5089669 0.8382782 0.25503138 -0.34348208 0.47481605 0.4224477 0.062302116 -0.7941238 0.7814477 -0.8339743 0.62795633 -0.27219206 -0.85474837 -0.28084153 0.20822263 0.55445 -1.2456031 0.7320936 0.273145 0.742698 0.6595257 -0.81569284 -0.064813755 0.49436554 0.9076014 -0.12169628 0.44720516 -0.60116917 -0.4567294 0.34156448 -0.12667291 0.7123737 0.3844398 0.43958026 0.017886989 0.27612236 -0.5490444 0.16901872 0.7794125 0.1735123 -0.277299 -0.73512435 -0.15832362 0.6595307 0.96872103 0.29048207 0.9273866 -0.72794735 0.33916178 0.8769766 0.89512604 0.95385134 1.1363114 0.5464789 -0.21761195 0.37751415 -0.7207651 0.67709094 -0.042248342 -0.13511205 0.24936956 -0.42756692 -0.89077437 -0.9898053 -0.23404606 -1.2745688 -1.137623 -1.0799391 -0.10433618 0.65300214 0.8359045 0.6439863 -0.67385256 0.12532784 0.87061113 0.92124915 0.03387157 1.045663 -0.3852708 0.26608005 -0.6576596 -0.46804702 0.7106411 -0.3457223 0.585463 0.5179244 0.15125804 -0.5852012 -0.2934927 -0.77958727 0.16372481 -0.7112337 0.34893954 0.94875723 0.7518004 -0.62178993 0.3300162 0.5938372 0.17569669 0.71706146 0.38737833 0.45118147 -0.019696144 0.6236695 0.23887765 0.75529873 0.7742087 0.7979327 -0.62579024 -0.6719179 0.5310735 0.22155893 -0.9232562 0.36163607 0.32314682 -1.039271 -1.0191735 0.5961062 0.06252357 0.24371864 0.61261076 0.11663436 0.7484424 0.848273 -0.32438108 -0.51414573 0.5736576 1.0674651 1.0384301 0.9600361 -0.6814985 0.024262657 1.0383582 0.8405931 0.39779368 0.17699052 -0.7363241 1.013295 0.9583931 0.20522763 -0.4014939 0.32470855 -0.6772851 1.0244653 0.8561882 0.23812938 -0.5604459 0.16749397 -0.0368793 -0.6127252 -0.025240764 1.0904126 0.909553 0.28116548 -0.23053795 0.08204102 0.020381035 -0.7759487 0.72864485 1.0387459 -0.0034277402 -0.46190584 -1.0233113 0.62718993 0.7946492 -0.7557402 -0.85122544 0.3298974 0.13376424 0.797763 0.89453065 0.42251492 -0.7766559 0.19683202 -0.104444504 0.110659406 0.040682446 -0.13227305 -0.28595516 -0.12265339 0.4028111 -0.5326679 -0.28221074 0.6174975 -0.0031441543 0.523454 -0.3962329 1.0866282 0.2472077 -0.5165313 0.8212692 0.2849375 1.004472 0.7168553 0.023602169 0.063659646 0.42891908 -0.59025776 0.6417957 -0.45463482 1.0597906 0.26724645 -0.7117403 0.3472711 1.0394106 0.8746585 0.6239115 0.31633884 0.04972354 -0.6764368 -0.25132123 0.37528905 0.28280374 -1.0814238 -1.1038035 0.15319791 -0.5528719 0.020077292 0.6031509 -0.9201466 0.7097826 -0.30033678 -0.29353064 -0.32967377 0.23968865 -0.70248854 0.5152261 0.24421506 -0.79591244 0.46965712 -0.508701 0.024104705 -0.7461552 0.7544787 0.7972448 0.3697144 0.29705667 0.073309906 1.1260393 0.8135769 0.4129113 1.0095103 0.20191477 0.99163955 -0.2790215 -0.7895551 -0.7090887 0.67324847 -0.42502007 -0.23674591 0.55778277 -0.53894305 0.92186993 -0.18789433 -0.010308289 -0.5436398 0.787215 0.08130465 0.89625424 -0.37950432 -0.6702823 -0.17186749 0.37990737 0.22829914 -0.5285958 -0.096173696 -0.8913176 0.5824425 0.5218602 0.3888926 0.51795477 0.68054205 -0.39512655 -0.3240101 0.7980199 0.12059631 -0.22207132 0.48445192 -0.67993915 0.42812005 0.7341096 0.5796138 -0.3963565 -0.4635143 1.0310473 -0.37124816 0.30658737 0.5438347 0.31473884 1.0202641 -0.43239385 -0.55678874 0.42969054 -0.4541668 -0.094979495 -0.08267145 -0.24569713 1.0062655 0.38816562 -0.3436228 0.25242102 0.52276105 -0.355561 0.5986053 0.002530311 -0.760855 -0.27245924 0.44198206 0.13978565 0.7353778 -0.18361984 -0.6205493 0.07154715 0.008359541 0.32994843 -0.944442 -0.76736665 0.022379529 -0.44835252 0.6537796 0.13511482 0.36082718 0.6713128 0.7834023 0.87306005 -0.8113845 -0.15399362 0.113308705 0.87493443 0.6147336 -0.51613957 0.63708645 -0.37366492 0.26439238 0.7145111 0.14492401 0.8966207 0.0120328255 0.50499535 0.47944418 -0.010449248 -0.3754665 -0.46289378 0.27629662 -0.12457615 0.27461165 0.2458445 -0.05607586 -0.46452984 1.2730231 0.7452558 0.37814498 -0.37511915 0.9558754 0.40832344 -0.0010500012 0.7652409 -0.9982491 -0.83864826 0.59896666 0.66737825 -0.018194927 0.5487536 -0.13309003 -0.32676744 -0.50039876 -0.10383352 0.40119863 0.25199375 0.63721514 -0.46619624 -0.7000961 0.12694497 -0.35653165 0.18596487 0.12505165 -0.26211345 -0.25380227 0.9039059 0.55022275 -0.3402351 1.0621109 0.7102117 0.30878592 0.05044298 0.56097656 -0.4166266 0.2876428 0.03592346 0.93267184 0.8657593 -0.26061353 0.9571272 0.23030354 0.8139425 1.064626 0.22784494 0.35364637 -0.27504003 -0.10516855 -0.069430456 -0.20162573 0.62539977 0.13799465 1.054133 0.1101394 -0.69691294 -0.014427147 -0.89256704 0.4181074 -0.09525116 0.5025721 0.03873712 0.6662184 0.4808054 -0.3221181 -0.92039657 -1.0056828 -0.04867444 -0.74879026 -0.19903518 0.5444536 -0.66919917 0.44067103 0.8139626 -0.5071284 0.87963235 -0.107359774 0.9034578 -0.7295119 0.6237227 0.11302072 -0.17965525 0.21021125 0.56592757 0.89452374 0.92888856 0.9589674 0.6338182 -0.4842188 0.96679413 0.13619956 0.33093798 1.1432271 0.7528959 0.16997693 -0.5265206 1.1736857 0.86347747 0.036162447 -0.79311913 0.56364167 0.7847746 -0.3836478 -0.04015005 -0.18623528 0.8959365 -0.80350775 -0.8208149 0.6383416 -0.31114584 0.18880266 0.6121623 0.06717213 -0.59184307 -0.44875702 -0.2662862 0.126065 -0.9350882 0.25098205 -0.45954806 0.6399719 0.4379913 0.27575114 0.4754676 -0.04821496 -0.4494976 -0.38591054 -0.22219315 -0.63483155 0.012393861 0.9495434 -0.5336271 -0.40106374 -0.026166761 0.072150245 -0.43137518 -0.325244 -0.06962944 0.88804895 0.73459405 -0.43078208 0.94677114 0.5661282 0.5969613 0.5623063 -0.11817196 -0.3865838 0.4733945 -0.6203354 0.3216895 1.0600576 0.9298225 0.5467642 -0.34503222 0.059441883 0.49695858 0.38144076 -0.83314764 0.65857935 0.023678003 -0.52336526 -0.58686113 -0.47504908 -0.9190642 -0.46715894 0.38073474 -0.9731341 0.6585605 -0.7376972 0.092740156 0.34478456 0.5616321 0.71763086 0.3487164 -0.8103603 -0.60738635 -0.5342675 -0.31209454 0.0670219 -0.008354647 -0.58218235 0.6793515 0.8020336 0.56111705 0.009208958 -0.62192976 0.9508846 0.6660658 0.6800519 0.00173312 1.0329181 0.4654645 -0.60531044 0.05200459 -0.16788392 0.7454 -0.66247344 -0.51468366 -0.049686555 0.3214158 0.03778128 -0.1264233 0.07320138 0.17760333 -0.4570343 0.12970844 0.7315816 -0.68859655 0.40019664 -0.4381774 -0.9678721 -0.6077608 0.50067365 -0.6748507 -0.39990133 0.5433191 -0.86347187 -0.5946973 0.5690127 -0.28334144 0.43969446 -0.55043733 0.7859449 0.5839877 -0.24992861 -0.20574354 -0.49115363 0.9274951 0.35138246 -0.597642 -0.15652888 0.6154283 -0.3478201 0.74995935 0.17657818 -0.0056493855 0.49810225 0.6576102 0.4526999 1.0500504 0.46499786 -0.09245486 0.8044627 1.1043103 0.78049 0.06771324 0.8842655 0.63819724 0.40492672 -0.32225892 -0.33720145 -0.3275129 -0.034142725 0.0025763423 -0.4866708 0.74611664 -0.55534184 -0.381479 -0.16218525 -0.08648836 -0.86392975 -0.26943663 0.38633925 0.48695478 -0.17917775 0.015681894 -0.2252372 0.35947105 -0.5266091 0.39522266 -0.02158219 0.776286 -0.24469344 0.5729692 -0.5515955 0.29792398 0.1071952 0.09165821 -0.5800398 0.45535734 0.9151567 -0.07019112 -0.15265596 0.071109846 -0.25826994 0.9786973 0.94821537 -0.7818634 0.19816837 1.0032917 0.24794301 0.8654995 1.0877385 0.6632437 -0.24222837 0.89890367 0.29810703 0.7572575 0.72034985 0.13814248 1.139411 0.7197833 0.80172765 0.76826984 0.930819 -0.24667546 -0.88478625 0.42339006 -0.54762435 0.62961644 -0.01890529 0.3586359 -1.0996282 -0.29826406 0.5647126 0.2376963 0.6108475 -0.4320846 -0.92515135 -0.89676684 0.49681136 -0.74215716 -0.97576904 0.7944663 0.45320207 -0.23070061 0.8146211 -0.7748664 -0.64449304 0.5718212 -0.0182989 0.1936091 0.32625058 0.4566023 0.13255017 -0.35510167 0.8910155 0.31310412 -0.43042812 0.86603516 -0.46617 0.31224498 -0.57355094 1.0704713 0.36930054 -0.24180482 -0.58882153 0.68852186 0.751851 -0.20814957 0.6068962 0.793333 0.08824916 -0.31148097 0.5681681 -0.9041991 0.3511347 0.1612059 -0.8221529 0.52325046 -0.2126737 -0.1364141 -1.086732 0.20633854 -0.6040882 -1.1265988 -0.18241717 -0.373198 0.90672046 0.24086015 0.3941799 -0.3475171 -0.21905757 -0.5454014 -0.22936891 0.33775416 -0.21521154 0.52449447 0.05297406 -0.5403347 -0.2664244 0.9283157 -0.7473369 0.27680278 1.0759399 -0.09895542 -0.42211008 0.7715576 0.04384744 -0.53093064 -0.31582192 -0.19377567 -0.25953344 0.18414156 0.78289306 -0.6068458 0.21273084 0.18427902 1.1549563 -0.40307152 -0.80686796 -0.24661069 -0.45125532 -0.6480289 0.30630887 -0.41724226 -0.23450528 -1.0139112 0.49385408 -0.45818958 -0.038210973 -0.35581243 0.27249375 0.58650756 -0.17870505 -0.5998316 -0.5687335 -0.32461357 -0.22371563 0.53779405 0.6402832 -0.9322281 0.28331685 -0.9531089 -0.8416618 0.5017098 -0.63594794 0.65097624 0.15448408 -0.6921695 0.7465822 0.12810044 0.29886 0.79094243 -0.15697756 0.011484884 0.7125644 0.27240333 0.5941172 -0.66783917 -0.097333275 0.85971886 0.33837044 -0.5104506 0.049151815 -0.5676515 -0.24342488 0.7494554 -0.17512317 0.5632609 -0.31133524 0.5348433 0.15016519 0.9270383 -0.92568743 -0.08798481 -0.7542099 0.80391705 -0.99075913 -0.7211892 -0.47482845 -0.82167685 0.54540944 -0.8049285 -0.8539376 -0.17507376 -0.40272 -0.09059251 -0.7153777 0.08904691 -0.5768239 0.4784689 -0.18318401 0.5459376 0.2385257 0.5057196 0.61116517 0.47356933 -0.092406064 0.68157834 0.44108236 0.115437165 0.83029395 0.73947906 0.38937172 0.14814614 -0.14237858 0.18671876 -0.7048818 0.034979273 -0.5404564 0.55156577 0.5476492 0.20695542 0.71526396 0.18547496 0.93573505 0.91014034 -0.21540314 -0.3936761 -0.26994428 -0.5810786 0.9154238 -0.3922674 0.26616114 -0.4350815 -0.6120876 -0.9035388 0.6923478 -0.5696029 -0.9409784 0.38371906 0.08337739 -0.5492401 -0.34235206 0.40738872 0.071404904 0.23550099 0.76252866 0.7057288 -0.5679996 0.50649744 0.32404685 -0.09360791 0.041722316 -0.9193245 -0.4027592 0.35955665 0.13426632 -0.48991352 0.99792784 0.22262527 -0.55199707 -0.7810695 0.6655724 -0.100798 -0.26313478 0.064935654 0.66650516 0.45297322 -0.3917443 0.47782844 -0.33935976 0.92734677 0.71837443 0.8087461 0.17602167 0.64266723 -0.4347283 -0.38486817 -0.16669817 0.6210834 -0.67108315 -0.22760858 0.28119618 0.16763765 -0.17943923 0.5937576 0.43939695 0.29826552 -0.36072114 -0.9658523 -1.0448388 -0.6441678 -0.32048538 -0.9131347 0.11064569 0.7062921 0.64888316 -0.30605584 -0.7916446 -0.023447085 0.81281936 -1.0241997 -0.29311603 -0.15186794 -0.30006805 -0.28238735 -0.45631275 0.30184394 0.5567189 -0.7834268 0.91606814 0.752796 1.0697601 0.7905941 -0.51236486 -0.104616374 0.35835662 -0.7807226 -0.36577907 0.7676256 0.57931364 0.74974316 -0.6408061 0.8330546 -0.4260696 -0.034724947 0.79601717 -0.23003756 0.41614598 0.021648103 -0.24784222 -0.5277392 -0.20980859 0.58396214 -1.1002855 0.23265815 0.6496644 -1.0163699 -1.0041863 -0.15279703 0.5256845 -0.76380575 -0.17317654 0.020386305 -0.406875 -0.072101 0.072459 0.61111236 0.61087465 0.9697732 -0.9344727 0.16537227 0.15967448 0.61194086 -0.7575002 -0.77166164 -0.83570176 -0.18340386 0.7750753 0.13511916 0.6698596 0.14968744 -0.3194086 -0.8177092 -0.06178992 -0.61348295 0.6949071 0.5442966 -0.23008448 0.6029776 -0.015759686 0.23490342 0.5270717 -0.18680364 -0.72431207 0.90117514 -0.2121027 0.28667042 -0.62088734 -0.35865673 -0.8447956 -0.48279712 0.17985405 0.4155002 -0.6828012 -0.20578448 -0.5834764 0.42639378 0.34156346 -0.23835012 0.38450995 0.18416484 0.4062398 -0.5516983 1.0666485 -0.13334261 0.8793009 0.5643643 0.28382325 -0.13862512 -0.13061874 -0.8829518 0.7045683 0.20984209 0.18084557 0.26087704 -0.016654873 0.4748631 -0.35708386 0.23104155 -0.693037 0.36851948 0.11825511 0.043521404 -0.81586885 0.9931031 0.5503186 -0.15142359 0.7154116 -0.5547601 0.5512994 -0.20723669 -0.7745812 -0.79297405 0.68131995 -0.34252894 -0.27967975 -0.46068302 0.06362705 0.5466223 -0.53866476 -0.078514196 -0.12952086 -0.37752256 0.03844803 -0.70280176 0.013429685 -0.19405167 0.5228768 0.2664096 0.2274679 0.17680629 0.84097594 0.4332473 -0.10800333 0.27514473 0.45080695 1.1006777 0.69960475 0.4700716 0.49192584 -0.10934439 0.7839912 0.2625849 -0.78097963 -0.83576727 -0.66732645 -0.55051756 -0.66374594 -0.32442603 -0.4492762 -0.17010549 -0.4019278 0.08054225 0.41876823 1.0198476 0.8407148 0.16481969 -0.3294372 0.53890216 -0.5154455 0.84992546 1.1071446 -0.25393495 0.44315544 0.21302609 0.49232274 -0.7530518 -0.32733697 -0.45947346 0.64607066 -0.21258225 0.5618242 -0.81173205 -0.08450124 -0.30826086 0.62633944 0.5031795 -0.64655507 -0.19190146 0.70932883 0.6120471 -0.011108679 0.93394697 -0.36189583 -0.50192237 0.5068985 0.70876586 -0.25021598 -0.64720225 -0.52022225 -0.5582472 -0.10108749 0.34541896 -0.6024491 -0.5341921 -0.028264578 0.76642483 -0.5906746 0.7667942 0.52556884 -0.51289535 0.5777708 0.41970503 0.63334394 0.16650671 -0.41707987 0.551601 0.48351622 0.72726905 -0.3569599 -0.31087542 -0.17019273 0.27880707 0.22321221 0.124581724 0.64861655 0.7550361 0.6543432 0.09729702 -0.20139812 -0.26897648 0.5055119 0.6424082 -0.50964403 -0.10096709 -0.8404954 0.20860837 0.19285685 0.06395486 -0.80989784 0.42315018 0.5519167 -0.5116087 0.14384001 1.0728606 0.25608274 1.1547208 1.0186979 0.99359137 -0.40609777 0.6561728 -0.060779963 -0.6459853 0.91672856 -0.4433539 -0.7952791 -0.90694773 -0.9362556 -0.20185617 -0.8380402 -0.8384194 0.77888507 -0.3598444 -0.3585977 0.73690635 -0.98014516 -0.7133361 -0.95464337 0.43159565 -0.2876458 -0.60313696 0.66428614 0.16636403 0.44991028 0.11354516 -0.54434556 0.35678443 -0.8930752 -0.18375875 -0.29966202 -0.84971297 0.5390825 -0.84063417 -0.1726263 0.55741626 -0.13759875 -0.39957884 -0.1422936 -0.45795643 -0.7567814 -0.65967095 0.42501822 -0.7898153 -0.11606808 0.8299215 0.35756698 0.45908937 0.8606816 -0.15129614 0.43053815 0.29383555 -0.605453 -0.46248752 -0.4244338 -0.096428335 -0.34580672 0.20628284 -0.42572483 -0.7535826 0.18718754 0.2145594 -0.24054876 -0.72183216 0.40590125 -0.43376768 -0.47134444 0.4953675 -0.13274892 -0.35669205 -0.7839126 -0.22510266 0.3843901 -0.2142978 0.43750435 -0.8154758 -0.8922506 0.8088663 0.12714057 -0.21609958 -0.26480758 -0.16447003 -0.8230177 -0.4583053 0.6413338 -0.5488068 -0.86034274 0.60824287 0.59157324 0.28027138 0.59827965 0.479889 0.32845363 -0.26320344 1.0550468 0.48075408 -0.5688698 1.2254406 -0.26832938 0.7920947 0.018009292 0.9828149 -0.013130513 -0.5572377 0.22844884 0.67174995 0.037911154 0.4746206 0.31426287 0.5448892 0.9940497 -0.31831017 -0.05285147 -0.69519097 0.62402713 0.18899314 -0.46302757 0.6034623 0.7571982 -0.49128816 -0.6974954 -0.31774813 0.7995517 -0.17241476 -0.7360377 0.425565 -0.82680947 0.27090728 -0.5378608 0.010447115 -0.4693534 -0.3365127 -0.27362046 -0.5346566 -0.80192196 0.0269435 -0.08553732 0.21588114 0.017875997 0.35579112 0.5769155 0.31352672 -0.5835533 0.22778252 1.1181095 0.9653738 -0.14144053 1.034694 0.82593006 -0.22113632 0.86905026 -0.3391383 0.35243437 0.923772 0.30001453 0.6825792 0.7472204 0.7043584 0.5114763 -0.56913644 0.3385226 -0.6903528 -0.24721727 -0.833735 0.35345542 -0.9115122 0.48081923 0.72788876 0.1737204 -0.29755923 -0.3048957 -0.8792778 0.04942272 0.03962895 -0.248883 -0.6266033 -0.576491 0.020453414 0.107013576 -0.28497952 0.56505513 -0.77922595 0.6262249 0.03921057 0.18749806 -1.0010939 -0.14355949 0.2302219 -0.37631723 0.53580564 -0.507649 0.045301806 0.41645372 -0.35316992 0.25314468 1.2140887 0.6431888 0.35048595 0.6147485 1.0316935 0.28178856 0.48393884 0.7553371 0.72783244 0.21204033 0.52009565 -0.29418424 -0.26835728 -0.96597165 0.32278016 -0.5136187 0.40200618 0.031942524 0.014430728 -1.0343281 0.11679841 -0.095599316 0.097926736 -0.08470972 -0.38605615 0.16536777 -1.1757094 -0.70083165 -0.96462727 0.4320682 0.40010834 -1.2306887 -0.9282596 -0.6540243 -0.84758747 -0.952839 -0.00510875 0.28076145 0.23243669 -0.017269528 -0.3949666 -0.60077876 0.012042697 -0.3073015 0.03660435 -0.0126777105 -0.44155943 0.3841501 -0.17263964 0.20724332 -0.39479083 0.2338692 0.80028427 -0.6749785 -0.6895425 1.1226083 1.0540946 -0.6658711 -0.18166243 0.8866916 0.9522109 -0.029147437 -0.5527342 -0.072844505 0.07989876 -0.99588704 0.029130375 -0.9694784 -0.9544144 -0.92898077 -0.9826735 -0.5204315 -0.7344916 -0.8076448 0.15709725 -0.044938434 0.42779428 -1.1391556 -0.8288508 -0.7240092 -0.19856775 -0.17670523 0.20935829 -0.57687247 -0.49739355 0.61858195 0.37718433 -0.26220587 -0.86395115 0.029364845 -0.16465662 0.6575591 -0.06952576 -0.39876613 -0.6331271 -0.33313206 1.0254543 1.1952387 -0.47713712 0.45532274 1.0925989 -0.5069057 1.0651541 0.35287195 0.93744177 0.593154 -0.23859812 0.5300492 -0.4642495 0.9522009 -0.60737973 -0.59768355 0.8982129 0.08759433 0.11562835 0.65842134 0.67996544 0.7863309 0.3328863 0.62071574 -0.2898654 0.3267517 0.69827247 -0.43397164 0.4230872 0.0737127 -0.82272804 -0.59455854 -0.8590948 -0.7723587 0.17549473 0.45119172 -0.7586614 0.6156532 0.7622017 0.6944552 0.37871352 0.6934243 -0.15464449 0.9170609 0.114931755 0.76585585 -0.76349455 0.09680126 0.007539264 0.8110429 -0.3182351 -0.14087972 0.7028645 0.26265374 0.71940786 -0.39257485 0.7112341 -0.21028602 -0.68594944 -0.8293335 -0.10260762 0.075629234 -0.25217727 -0.6635154 -0.6737636 0.87661386 -0.26782712 -0.29983544 0.04086917 0.64034426 -0.6019945 -0.039683107 -0.22164404 0.5769459 0.19532543 0.58878034 0.7600105 -0.7252777 0.5771187 -0.60587895 0.47871315 -0.6156107 -0.8761367 -0.8179339 0.47311193 0.6495539 0.41060692 -0.62471503 -0.0023424344 -0.8274535 -0.63138855 -0.05602018 0.36936948 -0.40095213 -0.18870701 0.4369275 0.16136223 0.38191447 0.86317724 -0.34334117 0.17236508 0.9508017 0.59791803 -0.7007662 1.0813714 -0.27445802 -0.5418113 -0.68780386 -0.51854527 -0.8685491 0.24579974 0.37933803 -0.85297847 -0.37944147 -0.26364905 0.6278695 -0.8751147 0.2693839 -0.22763336 -0.2029299 -0.9501567 -0.42500243 -0.8586474 0.23803933 0.61879206 0.1499262 0.5053473 -0.61510617 -0.9827196 -0.045147672 0.31863797 -0.76088786 -0.076452665 0.4293554 0.1638164 -1.0166277 0.5032311 -0.6857483 0.82161 -1.049001 -0.447656 0.018667359 -1.0069177 -0.46656698 0.3005673 0.12447351 -0.61709124 -0.9301496 -0.27399093 0.85271144 -0.16029432 -0.95248353 -0.5542759 0.4963526 -0.30137643 -0.7944805 0.24788745 0.7234523 0.1017183 1.2754734 0.73019576 0.91900074 1.1878442 0.6194768 0.44500306 -0.09416992 -0.36851454 0.81296533 0.99728686 -0.046566106 0.23140332 0.9321215 0.58461773 0.17464507 0.15090251 0.7621651 -0.4364379 -0.2558684 0.5250331 -0.24648643 0.816056 0.92776805 0.8021546 -0.3222424 -0.20434283 0.1832979 -0.38691965 -0.34372127 0.43424883 0.2853494 -0.5516268 0.18552005 -0.17035383 -0.6288865 1.0500385 0.24146762 0.8833757 -0.18031017 0.6560392 0.71387696 -0.13614652 0.8469213 -0.49435169 0.4367165 0.45213023 0.21969482 0.005539693 -0.35910752 -0.30027682 -0.9444124 -0.8162833 -1.1519384 0.3669293 0.7003931 0.35213697 -0.9791985 -1.0107201 0.3358768 -0.95043063 -0.17724949 0.36386412 -0.053229783 -0.9060311 -0.29459426 -0.75892 -0.6654303 -0.20703204 -0.4108924 -0.91502273 -0.64362097 0.1737355 0.7253946 0.46402714 -0.8881073 -0.78140956 0.3281412 0.555458 -1.014963 0.40804192 0.6637731 -0.7206557 -0.45904338 0.73038024 -0.25850698 0.855827 -0.88192004 -0.2469145 0.32413805 0.31793016 -0.23283738 0.38234404 -0.39025587 -0.7371826 -0.09574989 -0.61071056 0.6541894 -0.80411285 0.41925412 0.167434 0.58680785 -0.52669376 -0.6013917 -0.12289066 -0.6768804 0.010166721 0.9302702 -0.96427584 0.6502526 -0.001391798 0.82533145 -0.79009086 0.08202967 0.81525666 0.1361257 0.7732426 -0.5383006 -0.44675246 0.37828034 0.5457798 -0.45380613 -0.85593766 0.4850805 -0.51011455 -0.35705915 -0.51803577 -0.82861394 -0.071872726 -0.17341977 -0.65978223 0.24421167 0.55595237 0.05910879 -0.07260776 0.024381194 -0.61891466 -0.047177922 -0.8500541 0.9455072 -0.5948211 -0.5555023 0.93827176 -0.39324236 -0.7395356 0.080621675 -0.1268155 -0.12302883 -0.5247611 0.33921483 0.11987412 0.11288615 1.1813581 -0.43934745 0.97956836 0.97290903 0.5125328 1.0804224 -0.2816243 0.20955716 0.79511124 0.04839736 0.22309116 -0.30044898 1.2256792 -0.45817992 0.5004563 0.9363703 1.0416812 0.23656267 0.1058939 0.24255757 0.86804926 0.32066283 0.57628673 1.0251815 1.0074723 1.0238503 0.4690821 1.1703638 1.2537476 0.9390831 0.16577968 -0.47924525 -0.100502305 -0.016916132 0.5280461 -0.35161042 1.0811284 1.0666485 0.68710124 -0.016419698 0.20667617 0.7379406 0.25574243 0.05479989 0.8995051 -0.37322444 0.020434972 0.35788563 0.6314718 0.5476174 -0.6372827 -0.1338221 -0.51097625 0.54057133 -0.012300496 0.80967456 0.40032277 0.24077362 0.45312294 0.074212044 -0.49549615 0.57383066 -0.25874186 0.67374283 0.0024537607 -0.2820862 0.8533695 0.47910622 0.51814276 0.70136493 -0.24059664 0.9568313 0.8485922 -0.83250225 -0.8424938 0.6841381 0.7144608 -0.5288735 -0.651849 0.32905653 -0.38041553 0.17872459 0.8664077 0.20939223 0.99519473 0.86597115 -0.7693474 -0.5098448 -0.35814208 0.19697577 0.22986142 -1.0087763 -0.36384705 -0.42026642 -0.2851532 0.95297074 -0.45628914 -0.19508313 -0.893323 0.5543224 -0.5995998 0.6512157 -0.8734824 0.3531578 -0.31784204 0.43124998 0.5334315 0.11620036 -0.5278614 -0.76294196 0.3013172 -0.7911286 0.39664268 0.45081228 0.051674183 -1.0144432 0.73226583 0.3246092 -0.31096447 0.039101508 -0.542037 -0.7166922 0.07229172 0.47717196 0.79704165 -1.1275978 -0.39463758 0.629261 0.5989181 -0.666766 -0.5095528 -0.43160287 -0.6432925 -0.20759036 0.28845733 -0.15319404 0.4949158 -0.6627403 -0.16676824 0.49085078 -0.82296133 -0.1257221 -0.90581214 -0.44541082 -0.5265157 0.22593044 -0.046077255 -0.5273039 0.030108506 0.042548865 0.32465264 0.49449536 0.77918553 0.9698383 -0.5044826 -0.5061406 0.22764406 0.45660824 0.6192296 0.8372393 -0.079504974 -0.005446125 0.5616586 0.12086147 0.84980065 -0.49322772 0.8442857 0.5785555 0.28931773 -0.071658105 0.036404584 0.06819839 0.9769191 0.36102387 1.0857748 0.99648046 1.1001633 1.034607 -0.45864967 1.1386527 -0.51233834 -0.37126988 0.65649265 -0.21080975 1.2517041 -0.77335984 0.104526624 1.1192998 0.49231264 0.42324138 0.8719721 -0.024778165 0.9557821 -0.79410446 -0.95863616 0.82597786 -0.06475649 -0.792449 0.25520268 0.49882486 -0.2554296 -0.90231735 -0.09366483 -0.674871 -0.7789056 -0.3336069 0.28001174 0.40748984 -0.6335023 0.33708817 -0.48877406 0.24436904 -0.8601885 0.6502767 -0.55336833 0.21588723 -0.18023965 -1.1811738 -0.6835623 0.58513695 -0.07010339 -0.16910996 -0.5035283 0.14239267 0.057913925 -0.65558875 0.13479532 0.13167998 -0.18638112 -0.059597183 -0.24045496 0.69037014 -0.5310621 0.0062349793 -0.23039754 -0.7134409 0.35435176 0.2941413 -0.063431494 -0.9503362 0.97111577 0.56672764 0.79718006 -0.7413934 0.6541217 0.8822848 -0.122307435 -0.7502564 -0.7749397 0.42665255 -1.0874904 0.021427976 0.21412311 -0.06106872 0.5450348 0.18248507 0.18107194 -0.18877862 -0.036633883 0.60209566 -0.9742704 0.28642267 0.32707226 -0.4184481 -0.46718702 0.018577145 0.111031935 -0.30146277 0.6292229 -0.0854268 -0.98218685 -0.23518899 0.60266644 0.39693567 0.55949944 -0.66499734 -0.21387607 -0.5529091 0.37765855 0.47043025 -0.64921165 -0.02869776 0.12154581 -0.5598153 0.5187296 -0.26163682 0.17633294 0.7253486 -0.1913072 0.024444023 0.8299876 0.24165234 0.66348433 -0.8500253 -0.79861945 0.09095864 -0.4042718 0.38255346 -0.57341564 0.8494334 0.47943744 0.73266774 0.18351284 0.4399504 0.66973346 0.87546146 0.05324079 0.44405514 -0.37784788 0.44858295 0.07700881 0.67326385 1.1112413 0.46040735 0.14159937 0.6294328 0.6328675 0.063423514 -0.73235303 0.7973908 -0.5550837 0.12606236 0.5719241 -0.719909 0.86692935 -0.7273813 0.15929298 0.5889174 0.102995716 0.03815221 0.4507777 0.8878005 0.3989319 0.9470071 0.2046728 0.26470727 -0.27838174 1.1535456 0.30589378 0.27003518 0.77917874 -0.49398735 0.62440085 0.6013462 -1.0960102 0.7910303 0.33163714 1.0021063 0.43142402 0.007106561 0.097307324 0.5078777 -0.43121016 0.20507091 0.4059687 0.07222703 -0.32987973 -0.9908684 0.77680653 -0.34666282 -0.52872306 0.11368341 0.5527719 -0.8182837 -0.3729425 0.601375 0.55089146 0.28005302 0.15709418 0.0067266626 0.17308222 0.07909935 -0.45466718 0.6702951 0.44825956 -0.02143171 1.0609604 -0.7426753 -0.5281556 0.29728106 0.26535004 -0.30802464 0.73597634 0.095196836 -0.35319513 0.46695498 -1.0652072 -0.16356015 -0.10456782 0.4037238 -0.6897468 0.16946745 -0.66815907 -0.29735765 -0.17898914 1.0417769 -0.19316605 -0.5182654 -1.0205752 0.8971934 -0.59450865 -0.6010791 -0.711878 -0.53337353 0.61865443 -0.53396267 1.0290167 -0.29279363 -0.14645706 0.8450266 -0.2824677 0.30459854 0.34997305 0.09811342 0.06679599 0.64431334 -0.14470275 -0.81359977 0.41179717 0.7359908 -0.15754247 0.7729459 -0.38994527 0.5901556 0.23057973 -0.8279664 1.3034602 -0.012277055 1.0541105 0.45283654 0.3276196 0.468821 0.52016896 -1.0379114 0.93878174 0.34852445 0.6216381 -0.07391654 0.82992756 0.75508237 0.66420835 -0.8172852 0.6684744 -0.052594468 0.08957382 -0.57800347 0.5524017 0.3305075 -0.33395895 0.34503722 0.7566158 -0.8234766 1.0475111 0.15817249 0.3131016 0.4831289 0.3323384 -0.17475283 -0.5959607 -0.707139 0.40493563 0.19957027 0.4427941 -0.2842001 -0.6999957 0.23941089 0.030629367 0.57263654 0.14409897 0.13905607 -0.044301104 0.1599702 -0.52898127 -0.15717065 -0.18274568 -0.68887097 -0.5459904 -0.6207943 -0.40719908 -0.38407257 -0.93476003 -0.12113529 -0.14214697 -0.95111716 0.7243406 0.6760639 0.4109532 0.85638565 0.66404545 -0.31604597 0.62745696 -0.810724 0.26038256 -0.016565423 0.6964066 0.8250033 -0.622588 -0.30120486 0.7313842 0.21443984 -0.045640726 0.081658855 0.37617096 0.8590489 -0.5968097 -0.6811615 1.1080889 -0.8312128 1.1473519 0.3519195 0.8289921 -0.57544166 -0.26937145 -0.22922006 1.0237525 0.23222925 -0.3831798 0.7602698 -0.6865526 0.9377831 0.19042797 -0.81752473 0.68377393 0.24071124 0.432662 0.37557274 0.9540945 0.58446693 -0.23270485 0.00951744 0.23090012 0.48095232 -0.00429446 -0.40633422 -0.3970398 -0.6537725 0.84378487 -0.1580743 -0.9979697 0.12245177 0.27836365 -1.0492097 0.8595022 -0.981339 0.37854463 0.02279441 -0.75028676 -0.26833868 0.64506274 0.6456877 -0.42062306 -0.7018083 0.5195492 0.5755776 -0.35187316 0.8437799 0.07622102 -0.24703434 0.935527 -0.59388095 0.12279639 0.2693786 -0.05022214 -0.06908248 -0.23552187 -0.3188085 -0.8004259 -0.5580323 0.14193125 0.45630762 0.6850671 0.2904088 0.04466872 0.7122554 0.07041994 -5.8251864E-4 0.81398064 0.92629564 0.12637849 0.07985847 0.1424281 -0.78963834 0.9031026 -0.16858384 0.4347894 0.03726838 0.121020354 1.1258181 0.4761018 -0.75259095 0.06398444 0.577443 -0.022193618 0.80110925 -0.052998222 -0.18234818 -0.86220574 0.4500113 0.19852307 -0.019168815 0.77498925 -0.92435217 0.40756935 0.3812684 -0.2998156 -0.61163795 1.1401869 -0.97956556 1.0366997 -0.13945977 0.58764684 -0.4640832 1.0560493 0.016655583 0.59405893 0.9418715 0.9597179 -0.31013927 0.7909376 0.44937465 0.30014604 0.101601 0.43489227 0.8323266 -0.7500122 0.17969587 0.124618515 -0.6609962 0.95102286 0.4306027 -0.38717076 0.8634293 0.5289381 -0.036739353 -0.37522578 0.039393544 -0.57983196 0.92785734 -0.23603033 0.17287649 0.24743924 -0.9980647 0.06903931 -0.005683054 -0.7185848 0.35479993 0.6485882 -0.68987817 0.8320837 0.7154017 0.5050674 -0.875094 -0.2699022 -0.057071272 -0.4054302 0.8618957 -0.33626965 -0.44744474 0.061467428 -0.8739076 -0.45320615 0.09104704 -0.47696105 0.36966434 -0.15961239 -0.9148021 0.0726006 0.3630204 -0.21281265 0.12500833 -0.5433125 0.14917149 -0.13535234 -0.28026673 0.15539439 0.44086027 0.13890257 0.17790507 -0.794263 -0.1185672 0.036399834 -0.97524536 0.17582369 -0.22614932 0.21231303 -0.77259505 -0.5431534 0.5751502 0.8624565 -0.21527755 0.46390682 0.34843895 0.23602745 -0.14723349 0.32058132 0.68806016 0.6952205 0.355167 -0.6246073 1.0091864 -0.6860999 -0.54537576 0.25196114 -0.3556645 -0.1682055 1.0433061 -0.20082012 -0.11206575 0.7094145 -0.3302496 0.13671955 0.7837282 0.9557568 0.6280901 0.07444679 0.8514265 0.07027511 -0.71231157 0.3083193 -0.63292533 -0.26570117 0.5367445 0.060854454 -0.23385745 0.34858873 -0.5955996 0.2713649 -0.73062325 -0.5773742 0.32695612 -0.41913423 0.33931994 0.6994678 0.48241472 0.18730669 0.23317176 -0.59296006 -0.2297945 -0.71117634 0.2637031 -0.44910297 -0.4003385 -0.7486001 0.63288265 -0.122393474 -0.25720185 -0.356036 0.8052435 -0.29163516 0.33410653 -0.5407156 0.10023317 -0.6224033 0.89094824 0.0032717222 -0.69633794 0.24597958 -0.71506083 0.5799967 -0.49527535 0.81750655 -0.83134794 0.9617568 -0.007256119 -0.13593552 0.3531542 0.3866135 0.39287886 -0.54147106 -0.30636677 0.78149337 0.039124995 -0.11780795 0.83592874 1.0842016 -0.6646929 0.86564106 0.04765668 0.89396197 -0.059280157 -0.6248854 -0.09511348 -0.23013295 0.10504265 0.20198856 0.3664719 0.47423968 -0.32002148 0.6350315 -0.6366873 0.17526314 -0.00532117 0.31947353 -0.5894292 -0.81564146 0.7337071 -0.5204085 -0.6819507 0.37485176 -0.054738417 -0.49008462 0.7267126 0.69462603 0.5720668 -0.50036234 0.9596156 1.0656737 -0.26046962 0.19305927 -0.78632045 1.0117731 -0.2936861 0.9683945 -0.6443208 -0.8119901 0.32314765 -0.49823207 0.095450684 -0.019922478 -0.44396898 -0.36762878 0.6707145 0.1811411 -0.4433535 0.8069905 -1.0504433 0.5856878 0.41521487 -0.60727245 0.609647 0.25148466 0.44972643 0.7594897 -0.5790423 0.94504863 -0.0047889524 0.07231829 0.6598378 -0.56432056 0.70259076 0.34247592 -0.8013555 -0.17812967 0.15735024 0.648104 -0.5938202 -0.62132484 0.30053538 -0.8965263 0.07616357 0.4451762 -1.1074103 0.9305579 0.79970866 -0.9685765 -0.73395425 -0.4541048 -0.39065316 0.39121857 0.02126082 -0.18604064 -0.9436708 0.17683333 0.51156074 -0.36487192 0.48763528 0.10280689 0.3621105 -0.57252204 0.8624102 0.41033077 -0.39321488 0.16317078 0.073874556 0.14796415 -0.70327973 0.30683404 0.23083352 -0.54834634 0.16400523 0.64400774 0.070466116 0.24852261 -0.3343783 -0.0738708 -0.45302132 0.33117935 1.076713 0.14350761 -0.76407737 0.9272569 -0.7761718 0.3240022 -0.01768412 -0.6941114 0.9068725 0.41447216 -0.49269888 -0.12935904 0.7515191 0.61308724 -0.37841377 -0.64849854 0.8238104 0.8861329 0.63911295 1.1806886 0.17356312 0.5888152 0.444285 0.9150438 0.35877988 -0.44092396 0.08739755 0.6084444 -0.3086012 0.24388632 -0.5873244 0.66102064 1.0152688 0.2403233 -0.496833 -0.56006664 -0.04374708 0.7107657 0.23221657 0.027368195 -0.7099619 0.08147611 0.7424393 -0.8366303 -0.041465037 0.028067444 0.54214877 0.63409656 0.6127754 0.58004475 -0.056631714 0.7691165 0.36836407 -0.3861268 -0.13047569 0.1763149 0.4413665 -1.091295 0.78490555 0.6343693 -0.8800318 0.53812814 0.60053146 0.2743054 0.2258487 -0.22110999 -0.032741465 -0.530327 -0.09411817 0.4842944 -1.2808691 0.7809629 -0.7982469 0.04169993 -0.19977278 0.35611495 0.5331967 -0.17840596 0.077547334 0.28105858 -0.15526569 0.41801202 0.091674395 -0.62543523 0.19756515 -0.044924967 0.54981154 0.26045755 -0.67572284 1.2124628 -0.055106863 0.4860972 0.407636 -0.59839743 -0.5716156 -0.31427872 0.1581337 0.70464593 -0.31947476 0.10750158 -0.29256293 0.32268608 0.752741 -0.38380978 -0.31387496 -0.57728225 0.29848897 -1.0950305 0.20805134 0.4589912 0.34035408 0.6545511 0.38888922 -0.38117447 -0.9322661 -0.08410407 0.019399498 0.031455852 -0.27138534 0.85094696 -1.0566216 0.9086739 0.06764711 -0.5758335 -0.1730709 0.5247695 0.67984587 -0.56626946 0.19157493 0.24418521 -0.7500738 0.23672132 -0.14967068 0.44008097 -0.7060915 -0.47359988 0.8898372 -0.49372998 -0.9129051 -0.08544792 -0.61882204 0.91435236 -0.09770107 -0.32035413 0.65811396 -0.22407739 -0.5977802 0.048347205 -0.5057676 0.44139212 0.40313086 0.031971373 0.6684251 -0.69656354 -0.88179636 0.27047712 0.19388743 0.33753705 0.6034886 0.25292745 0.32096305 0.59014755 -0.4962209 -0.5744752 0.65037614 0.66661817 1.2413261 0.1000375 0.53928655 0.79508114 0.36523876 0.5909155 0.123374924 0.2772097 1.125387 0.6721571 -0.4276042 0.3959744 -0.22583991 -0.08770072 0.89930266 0.51298624 -0.4093955 0.8833008 0.016868666 0.5207523 0.5468426 0.5162403 -0.3780171 1.2711824 0.7296915 0.33321747 -0.6850785 0.5419777 -0.110540316 0.27153847 -0.34752256 0.95125264 -0.6376698 -0.3868905 1.2234609 -0.107519604 -0.7050551 -0.1014066 -0.27281252 0.27866143 -0.60812855 -0.2110806 -0.69111717 0.8043547 -0.38137287 0.45411903 0.6168115 -0.54388744 -0.082527794 0.5895915 -0.59294623 -0.19850233 0.22876412 -0.8215409 0.33971608 0.9812315 -1.0624932 0.25589687 0.53480065 -0.7964513 0.060492173 0.71508193 0.6508119 -0.3461575 0.12355515 0.893491 -0.32300964 -0.5130635 -0.48561484 -0.66121656 0.9273721 0.08488298 -0.37207305 0.09753212 -0.6117467 0.7151584 0.5829331 -0.6257241 0.66571265 -0.2923676 -0.8029285 0.11224001 0.24822155 0.536931 -0.08022527 -0.5089694 0.5485383 0.8426346 0.24475409 0.7669001 -0.51061165 0.16859905 0.079362124 -0.1848693 -0.6891955 -0.83198255 1.0009061 -0.20916533 -0.93622905 -0.26716158 0.8584662 -0.4524338 -0.96225667 0.38792184 -0.34847394 -0.21135624 0.35738197 0.11917527 0.71145374 -0.5727136 0.085709706 -0.5954651 -0.3721596 0.10097152 0.40892434 -0.46169782 0.45263186 -0.0880187 0.61381763 -0.32891792 0.97209567 -0.37382916 0.029437423 1.1644337 -0.7241748 -0.39032587 0.8227101 -0.5904313 0.86149544 0.96857655 -0.8377895 0.63803315 -0.536048 -0.025570368 0.8546365 -0.48005366 -0.6329568 0.85702235 -0.56837314 0.84574676 0.6601046 -0.066580266 0.67186534 -0.82709104 -0.037958834 -0.6272664 -0.005489214 0.43464112 -0.36768505 -0.6420125 0.77656406 0.12035769 0.12214579 -0.26183787 -0.8536878 1.1634314 -0.24979363 -0.52586436 -0.4586307 0.84864503 0.57113785 -0.24976212 0.24165577 0.14344741 -0.2548952 0.043609537 -0.40556523 0.28538397 -0.020969741 0.37435418 0.10958234 -0.41892338 0.7974713 0.22387457 -0.66953784 0.42844838 0.5200716 